{
  "defaults": {}, 
  "inputs": [
    {
      "name": "met_met", 
      "offset": 0, 
      "scale": 1
    }, 
    {
      "name": "mtw", 
      "offset": 0, 
      "scale": 1
    }, 
    {
      "name": "lepton_pt", 
      "offset": 0, 
      "scale": 1
    }, 
    {
      "name": "lepton_eta", 
      "offset": 0, 
      "scale": 1
    }, 
    {
      "name": "deltaPhi_lep_met", 
      "offset": 0, 
      "scale": 1
    }, 
    {
      "name": "n_jets", 
      "offset": 0, 
      "scale": 1
    }, 
    {
      "name": "deltaPhi_j0_met_phi", 
      "offset": 0, 
      "scale": 1
    }, 
    {
      "name": "deltaPhi_j1_met_phi", 
      "offset": 0, 
      "scale": 1
    }, 
    {
      "name": "deltaPhi_j2_met_phi", 
      "offset": 0, 
      "scale": 1
    }, 
    {
      "name": "deltaPhi_j3_met_phi", 
      "offset": 0, 
      "scale": 1
    }, 
    {
      "name": "jet0_bdisc", 
      "offset": 0, 
      "scale": 1
    }, 
    {
      "name": "jet1_bdisc", 
      "offset": 0, 
      "scale": 1
    }, 
    {
      "name": "jet2_bdisc", 
      "offset": 0, 
      "scale": 1
    }, 
    {
      "name": "jet3_bdisc", 
      "offset": 0, 
      "scale": 1
    }, 
    {
      "name": "jet0_ptrel", 
      "offset": 0, 
      "scale": 1
    }, 
    {
      "name": "jet1_ptrel", 
      "offset": 0, 
      "scale": 1
    }, 
    {
      "name": "jet2_ptrel", 
      "offset": 0, 
      "scale": 1
    }, 
    {
      "name": "jet3_ptrel", 
      "offset": 0, 
      "scale": 1
    }
  ], 
  "layers": [
    {
      "activation": "rectified", 
      "architecture": "dense", 
      "bias": [
        -1.7334485054016113, 
        0.5235370397567749, 
        0.0, 
        -0.03296619653701782, 
        -1.5722031593322754, 
        -2.28598952293396, 
        -2.0873682498931885, 
        -0.08829306066036224, 
        -0.005883592646569014, 
        0.011757477186620235, 
        0.05701541528105736, 
        -0.0391634926199913, 
        -0.03965345770120621, 
        0.0, 
        0.0, 
        2.1536974906921387, 
        2.514143943786621, 
        3.230356454849243, 
        0.0, 
        1.2986217737197876, 
        -0.1413736343383789, 
        -0.10113033652305603, 
        0.0, 
        -0.10933758318424225, 
        0.0, 
        -0.03300194814801216, 
        -0.02104761451482773, 
        -0.031755998730659485, 
        -0.026534203439950943, 
        2.711564064025879
      ], 
      "weights": [
        -0.005333848297595978, 
        0.10675490647554398, 
        0.20686408877372742, 
        25.378440856933594, 
        -9.382828712463379, 
        -1.6236673593521118, 
        0.8049618005752563, 
        1.2957204580307007, 
        -0.44571882486343384, 
        -0.35095351934432983, 
        0.8563771843910217, 
        0.5599168539047241, 
        0.6434435248374939, 
        -0.08711632341146469, 
        -7.103586196899414, 
        -9.186640739440918, 
        -6.576718330383301, 
        -3.246906280517578, 
        0.009611157700419426, 
        0.3908759355545044, 
        0.3857783079147339, 
        28.899839401245117, 
        1.9892055988311768, 
        0.7233008146286011, 
        0.911743700504303, 
        0.6743049025535583, 
        0.6074903607368469, 
        0.7710472941398621, 
        -0.6399931311607361, 
        -0.9964683055877686, 
        -0.7622893452644348, 
        -0.3501031696796417, 
        2.246568202972412, 
        2.052248239517212, 
        0.6402530670166016, 
        -0.3154670298099518, 
        -0.060610007494688034, 
        -0.014511220157146454, 
        -0.03526198863983154, 
        0.027104241773486137, 
        0.1043238639831543, 
        0.03897347301244736, 
        0.065252386033535, 
        -0.02298019826412201, 
        0.017439251765608788, 
        -0.00780705688521266, 
        0.027388686314225197, 
        0.04783115163445473, 
        -0.0004499515052884817, 
        0.007268120534718037, 
        -0.01177905686199665, 
        0.04214214161038399, 
        0.038932915776968, 
        0.05822128802537918, 
        -0.2839359939098358, 
        -0.23713983595371246, 
        -0.09774913638830185, 
        4.058095932006836, 
        -0.3409126400947571, 
        -0.2149805724620819, 
        0.1602441370487213, 
        -0.20236986875534058, 
        -0.07209542393684387, 
        -0.036508191376924515, 
        -0.24422864615917206, 
        0.4020135998725891, 
        0.15760453045368195, 
        0.09411776065826416, 
        -0.42218342423439026, 
        -0.5533708333969116, 
        -0.622295081615448, 
        -0.3590376377105713, 
        -0.42261791229248047, 
        -0.7581247687339783, 
        -0.3366427421569824, 
        17.61016082763672, 
        -1.424082636833191, 
        -1.2387902736663818, 
        -0.20231977105140686, 
        -0.3924115300178528, 
        -0.15843628346920013, 
        -0.5470693111419678, 
        0.36648598313331604, 
        -0.3145318925380707, 
        -1.0994218587875366, 
        0.2143574208021164, 
        -1.758420705795288, 
        -2.168858766555786, 
        -3.7450358867645264, 
        -1.7766636610031128, 
        -0.06847507506608963, 
        0.4885150194168091, 
        0.4538390636444092, 
        20.96573829650879, 
        0.9586514830589294, 
        -3.0108680725097656, 
        -1.4278919696807861, 
        0.13679678738117218, 
        -1.2826125621795654, 
        -1.09132981300354, 
        -1.9635627269744873, 
        -0.27917933464050293, 
        -2.2442080974578857, 
        -0.11039504408836365, 
        -5.8443098068237305, 
        -8.289238929748535, 
        -7.943140029907227, 
        -4.637973308563232, 
        -0.028468072414398193, 
        0.4828931391239166, 
        0.4268849194049835, 
        -22.750341415405273, 
        -1.5256363153457642, 
        -3.546934127807617, 
        -0.5970079898834229, 
        -0.12257952988147736, 
        -0.7315750122070312, 
        -1.4065431356430054, 
        -5.461516380310059, 
        -1.1258671283721924, 
        -0.602936327457428, 
        -0.08645079284906387, 
        -7.647866725921631, 
        -9.619120597839355, 
        -9.279548645019531, 
        -3.6270341873168945, 
        -0.14848893880844116, 
        -0.1723112165927887, 
        -0.01500691007822752, 
        0.09830453991889954, 
        -0.0027568459045141935, 
        -0.12907561659812927, 
        -0.1699923872947693, 
        -0.08469057083129883, 
        -0.035575442016124725, 
        -0.11736732721328735, 
        -0.04084540531039238, 
        -0.014341448433697224, 
        -0.059613022953271866, 
        0.024456605315208435, 
        -0.07199113816022873, 
        -0.0893639400601387, 
        -0.030452899634838104, 
        -0.02047565206885338, 
        -0.03884492069482803, 
        0.01756296306848526, 
        -0.007271759677678347, 
        0.0002884289133362472, 
        -0.03453516587615013, 
        -0.04634934663772583, 
        -0.04800678789615631, 
        0.0774722546339035, 
        -0.06111824885010719, 
        -0.10362999886274338, 
        0.02774905413389206, 
        0.03294249624013901, 
        -0.021516531705856323, 
        0.062265440821647644, 
        -0.0034663102123886347, 
        -0.06104196608066559, 
        -0.034006573259830475, 
        -0.024690421298146248, 
        -0.09229622781276703, 
        -0.1268429309129715, 
        -0.09996560961008072, 
        3.1726369857788086, 
        -0.14050307869911194, 
        -0.03896060585975647, 
        0.05256219953298569, 
        -0.13808685541152954, 
        0.02600199170410633, 
        -0.026025844737887383, 
        -0.00245122192427516, 
        -0.06137985363602638, 
        0.07693861424922943, 
        0.15156300365924835, 
        0.011640302836894989, 
        0.045471809804439545, 
        0.02980181574821472, 
        0.1137586459517479, 
        -0.07813020050525665, 
        0.0016241277335211635, 
        -0.07646674662828445, 
        1.2665280103683472, 
        0.08478748053312302, 
        0.002110404660925269, 
        -0.020146271213889122, 
        0.049486298114061356, 
        -0.003107228083536029, 
        0.10781843960285187, 
        -0.05888848006725311, 
        -0.023959975689649582, 
        -0.1279136836528778, 
        -0.01514314953237772, 
        0.08239616453647614, 
        0.007363196928054094, 
        0.04880666732788086, 
        0.057455576956272125, 
        -0.035427242517471313, 
        0.033890463411808014, 
        -0.04584607109427452, 
        -0.004774840548634529, 
        -0.047999344766139984, 
        -0.02225336991250515, 
        -0.08519849926233292, 
        -0.03968480974435806, 
        -0.09211191534996033, 
        0.025917140766978264, 
        -0.12474076449871063, 
        0.06262423098087311, 
        0.03495720401406288, 
        0.10555049777030945, 
        -0.08299681544303894, 
        0.03263714537024498, 
        -0.03605123981833458, 
        -0.00485821720212698, 
        -0.028961408883333206, 
        -0.07483956962823868, 
        -0.06859021633863449, 
        0.09766906499862671, 
        -0.07973577082157135, 
        -0.10865244269371033, 
        0.0561615526676178, 
        -0.0566941536962986, 
        -0.04813017696142197, 
        -0.061998967081308365, 
        -0.029719045385718346, 
        -0.10544180124998093, 
        -0.05417433753609657, 
        -0.0023077887017279863, 
        -0.07057078182697296, 
        -0.11068098992109299, 
        0.06562738120555878, 
        0.02190735749900341, 
        -0.06549723446369171, 
        -0.07760212570428848, 
        -0.023899829015135765, 
        0.037467505782842636, 
        -0.015844663605093956, 
        -0.06708241999149323, 
        -0.08543765544891357, 
        -0.02221320942044258, 
        -0.08575230836868286, 
        -0.10966677963733673, 
        -0.03231832757592201, 
        0.006947917398065329, 
        -0.0005843072431162, 
        -0.03595299273729324, 
        -0.05534118413925171, 
        0.05390353873372078, 
        0.055978137999773026, 
        0.050552140921354294, 
        -0.01435842551290989, 
        -0.0910804495215416, 
        -0.03626108914613724, 
        0.004676534794270992, 
        -0.031703997403383255, 
        0.0782848671078682, 
        0.01890009455382824, 
        0.09815851598978043, 
        -0.036915551871061325, 
        -0.0549546480178833, 
        0.038992684334516525, 
        0.0793650671839714, 
        -0.0004764596524182707, 
        0.0784803181886673, 
        0.02907416597008705, 
        0.011140347458422184, 
        0.10346326977014542, 
        0.0043310741893947124, 
        -0.30286118388175964, 
        -0.624975860118866, 
        -0.16893577575683594, 
        11.104233741760254, 
        0.6779938340187073, 
        2.5104663372039795, 
        2.3101613521575928, 
        1.1253681182861328, 
        1.1423419713974, 
        1.1941266059875488, 
        -0.3884083330631256, 
        1.1210559606552124, 
        2.7215566635131836, 
        0.16534516215324402, 
        -0.06302976608276367, 
        -0.39179524779319763, 
        3.0302224159240723, 
        1.1734991073608398, 
        -0.32148969173431396, 
        -0.16769520938396454, 
        0.3272721767425537, 
        15.940605163574219, 
        -4.561469078063965, 
        2.902578592300415, 
        2.5224688053131104, 
        -3.3472065925598145, 
        -0.47138649225234985, 
        -0.08527916669845581, 
        -0.09012556821107864, 
        0.8742016553878784, 
        0.9027857780456543, 
        -1.1963095664978027, 
        -2.57270884513855, 
        -5.657100200653076, 
        -4.303211212158203, 
        0.5990591049194336, 
        -0.30154725909233093, 
        -0.27826738357543945, 
        0.26132410764694214, 
        -14.485137939453125, 
        -4.998202323913574, 
        2.3314783573150635, 
        1.919411063194275, 
        -3.852672576904297, 
        -0.4868585765361786, 
        1.224656105041504, 
        1.7785440683364868, 
        -0.355537474155426, 
        0.6454339027404785, 
        0.4169365465641022, 
        -3.9318222999572754, 
        -6.724410533905029, 
        -2.709998369216919, 
        -0.7179942727088928, 
        -0.06774290651082993, 
        -0.041063472628593445, 
        -0.03152994439005852, 
        0.006611531134694815, 
        -0.033190738409757614, 
        0.0009927870705723763, 
        0.0022085565142333508, 
        -0.008701632730662823, 
        -0.08875024318695068, 
        -0.04506298899650574, 
        0.03849039226770401, 
        0.06103261187672615, 
        0.038169585168361664, 
        -0.009105291217565536, 
        -0.09512016177177429, 
        -0.05582910776138306, 
        -0.05012479051947594, 
        0.002004683017730713, 
        0.0033061476424336433, 
        0.34137117862701416, 
        0.37031278014183044, 
        -28.222620010375977, 
        1.5551037788391113, 
        0.5039982795715332, 
        0.6603862047195435, 
        0.9292178750038147, 
        0.32637032866477966, 
        0.5180254578590393, 
        0.72403484582901, 
        -0.6157002449035645, 
        -0.9712771773338318, 
        -0.3641897737979889, 
        -0.043713025748729706, 
        -0.09572970122098923, 
        -0.1172843873500824, 
        1.3882339000701904, 
        -0.1444747895002365, 
        -0.06634770333766937, 
        -0.06183621287345886, 
        -2.614237070083618, 
        -0.010301398113369942, 
        -0.1561872661113739, 
        0.02591635100543499, 
        -0.22464577853679657, 
        -0.0800037756562233, 
        -0.15495026111602783, 
        -0.0910363644361496, 
        -0.19821877777576447, 
        0.04811857268214226, 
        0.22494183480739594, 
        -0.1871921420097351, 
        -0.11792004853487015, 
        -0.11724408715963364, 
        -0.06122849881649017, 
        -0.019664347171783447, 
        -0.08273518085479736, 
        -0.16216427087783813, 
        -0.023222165182232857, 
        -0.06328515708446503, 
        -0.09485597163438797, 
        -0.19483061134815216, 
        0.006907856557518244, 
        -0.08311937749385834, 
        -0.04036345332860947, 
        -0.10042671114206314, 
        0.03690881282091141, 
        -0.08746062964200974, 
        -0.02969665452837944, 
        -0.08507286757230759, 
        -0.12755216658115387, 
        -0.04153616353869438, 
        -0.13074752688407898, 
        -0.07275885343551636, 
        -0.009338571690022945, 
        -0.014115064404904842, 
        0.10512645542621613, 
        -0.04174075648188591, 
        -0.024653462693095207, 
        -0.09630531072616577, 
        -0.0201414804905653, 
        0.001074210274964571, 
        -0.0862092524766922, 
        -0.016519350931048393, 
        0.013191098347306252, 
        0.019541071727871895, 
        -0.03451776131987572, 
        -0.11786878108978271, 
        0.030821090564131737, 
        -0.0038544523995369673, 
        0.12516863644123077, 
        -0.1826867163181305, 
        -0.05295109748840332, 
        -0.06586510688066483, 
        2.5191810131073, 
        -0.16088572144508362, 
        -0.15371057391166687, 
        -0.06428872048854828, 
        -0.11398842185735703, 
        -0.04191484674811363, 
        -0.05653940886259079, 
        0.029192715883255005, 
        0.0668020248413086, 
        0.0006619904306717217, 
        -0.022622259333729744, 
        -0.1193898618221283, 
        -0.25649455189704895, 
        -0.4302161633968353, 
        -0.4817908704280853, 
        -0.02368970960378647, 
        0.003529817331582308, 
        -0.09349308907985687, 
        -0.0579412579536438, 
        -0.06283804774284363, 
        -0.03674812242388725, 
        0.0373220220208168, 
        0.08541851490736008, 
        -0.02901579812169075, 
        0.017943816259503365, 
        -0.0491487942636013, 
        0.04111886024475098, 
        -0.020331813022494316, 
        -0.017309999093413353, 
        0.028767773881554604, 
        -0.015347534790635109, 
        0.0927385538816452, 
        -0.05721927806735039, 
        -0.08988037705421448, 
        -0.061838410794734955, 
        -0.02806815318763256, 
        0.6881023049354553, 
        0.03526110202074051, 
        -0.06856928020715714, 
        0.010462692007422447, 
        -0.0941082015633583, 
        0.0057971966452896595, 
        0.03042290359735489, 
        0.0025158757343888283, 
        -0.013016424141824245, 
        -0.05022240802645683, 
        -0.04379267990589142, 
        0.09472282975912094, 
        -0.008183062076568604, 
        0.01662331447005272, 
        -0.2565564811229706, 
        -0.04388883709907532, 
        0.02860446460545063, 
        -0.05020194873213768, 
        -0.09985753148794174, 
        0.013116908259689808, 
        -0.06030378118157387, 
        0.022340305149555206, 
        -0.024007774889469147, 
        0.049495723098516464, 
        -0.07393520325422287, 
        -0.011677623726427555, 
        -0.08823706954717636, 
        -0.021375391632318497, 
        0.10524291545152664, 
        -0.13338997960090637, 
        0.003757834667339921, 
        0.010534706525504589, 
        0.05613166466355324, 
        -0.11328240483999252, 
        -0.06306759268045425, 
        -0.022507958114147186, 
        -0.03336196392774582, 
        -0.1327158361673355, 
        -0.03269435092806816, 
        -0.06960733234882355, 
        -0.010005554184317589, 
        0.013975744135677814, 
        -0.14032883942127228, 
        -0.08492393046617508, 
        -0.03969074413180351, 
        0.028341144323349, 
        0.10248235613107681, 
        -0.08335531502962112, 
        -0.04682019725441933, 
        -0.08276068419218063, 
        -0.024291958659887314, 
        -0.06687911599874496, 
        -0.08257780969142914, 
        -0.016626905649900436, 
        0.04168017953634262, 
        0.021230045706033707, 
        -0.12069140374660492, 
        -0.10557863116264343, 
        -0.04843917861580849, 
        0.011545604094862938, 
        -0.06741445511579514, 
        -0.07854949682950974, 
        0.03367014601826668, 
        0.09459513425827026, 
        0.020414669066667557, 
        -0.011515113525092602, 
        -0.04445764422416687, 
        0.04130253195762634, 
        0.04527599364519119, 
        -0.3783973157405853, 
        -0.717738687992096, 
        -0.15207277238368988, 
        -15.171133995056152, 
        -1.9520552158355713, 
        1.172682523727417, 
        1.1978466510772705, 
        -0.3153572380542755, 
        0.27296435832977295, 
        1.390889048576355, 
        0.46430346369743347, 
        1.1278687715530396, 
        2.6898443698883057, 
        -0.8938384056091309, 
        1.0666254758834839, 
        1.4614553451538086, 
        2.5629005432128906, 
        0.45351213216781616
      ]
    }, 
    {
      "activation": "rectified", 
      "architecture": "dense", 
      "bias": [
        -0.4576554000377655, 
        -0.5793899297714233, 
        -1.4290035963058472, 
        -1.9942905902862549, 
        -0.04439375549554825, 
        -0.15799175202846527, 
        -0.3256378173828125, 
        -0.13586066663265228, 
        -0.10344462841749191, 
        -0.06074164807796478, 
        -0.08339735865592957, 
        -0.08140842616558075, 
        -0.10665294528007507, 
        -3.4132823944091797, 
        -0.3874780833721161, 
        -0.08598100394010544, 
        -0.12828271090984344, 
        -0.05165006220340729, 
        -0.05390620604157448, 
        -0.0582050159573555, 
        -0.09187456220388412, 
        -0.0715244710445404, 
        -0.04029959440231323, 
        -0.03170956298708916, 
        -0.07538202404975891, 
        -0.0290002953261137, 
        -1.060567855834961, 
        -1.4878435134887695, 
        -0.23382647335529327, 
        -0.12984608113765717
      ], 
      "weights": [
        -0.2801942229270935, 
        -0.8326395750045776, 
        0.04222632572054863, 
        0.008520579896867275, 
        -0.6063110828399658, 
        -0.5502416491508484, 
        -0.18186968564987183, 
        0.023633016273379326, 
        0.03076009452342987, 
        -0.1947047859430313, 
        0.15030422806739807, 
        -0.07229457050561905, 
        0.07649719715118408, 
        0.1525084674358368, 
        0.001266543404199183, 
        -1.2170547246932983, 
        -0.23220884799957275, 
        0.11729147285223007, 
        -0.05516821891069412, 
        -0.0728195533156395, 
        -0.015430467203259468, 
        -0.00820543710142374, 
        -0.0637156292796135, 
        -0.09310374408960342, 
        -0.02353757433593273, 
        0.09148874133825302, 
        0.002832327736541629, 
        0.0347222276031971, 
        -0.05359397083520889, 
        -0.2177625596523285, 
        -0.220675528049469, 
        -0.7454341650009155, 
        0.023151852190494537, 
        -0.06056194007396698, 
        -0.17035406827926636, 
        -0.27800697088241577, 
        0.2734871506690979, 
        0.004454184789210558, 
        -0.016196085140109062, 
        -0.017196806147694588, 
        0.03020135872066021, 
        -0.03672178462147713, 
        -0.08918628096580505, 
        1.72047407431819e-06, 
        -0.011865677312016487, 
        -0.11606165766716003, 
        -0.2588580250740051, 
        0.31399592757225037, 
        0.04188847169280052, 
        0.8732399940490723, 
        0.07727935910224915, 
        0.025065144523978233, 
        0.042427077889442444, 
        -0.07440943270921707, 
        -0.11464929580688477, 
        0.059100326150655746, 
        0.0030858837999403477, 
        0.03748540207743645, 
        0.055967677384614944, 
        0.3115793466567993, 
        -0.1002662405371666, 
        -0.122065968811512, 
        0.01704016886651516, 
        -0.09000051021575928, 
        -0.13874046504497528, 
        -0.2791799306869507, 
        -0.4585614800453186, 
        0.052399296313524246, 
        -0.0609864741563797, 
        -0.018361670896410942, 
        -0.029257414862513542, 
        0.03491354361176491, 
        0.005159592255949974, 
        0.03259992226958275, 
        -0.04860113561153412, 
        -0.16740794479846954, 
        0.29975375533103943, 
        -0.22470121085643768, 
        -0.027348024770617485, 
        -0.4898550808429718, 
        -0.10184500366449356, 
        -0.008805656805634499, 
        0.019557178020477295, 
        0.03947113826870918, 
        0.02108047530055046, 
        -0.01443494576960802, 
        -0.010397330857813358, 
        -0.002695276401937008, 
        0.07921840250492096, 
        -0.6538369655609131, 
        0.6594761610031128, 
        -0.7179999947547913, 
        -0.06639999896287918, 
        0.04687568172812462, 
        -0.22386960685253143, 
        0.7403852343559265, 
        -6.241909503936768, 
        -0.014532841742038727, 
        -0.054742779582738876, 
        -0.04728161171078682, 
        0.05855203792452812, 
        -0.010180739685893059, 
        -0.017330246046185493, 
        0.07971866428852081, 
        -0.03184228762984276, 
        0.5624502301216125, 
        0.8453216552734375, 
        -4.872056484222412, 
        -0.017249371856451035, 
        -7.330869674682617, 
        -0.14778360724449158, 
        0.015368813648819923, 
        0.03259418159723282, 
        0.021110663190484047, 
        -0.02206338755786419, 
        0.012472819536924362, 
        -0.04167219251394272, 
        0.01335199549794197, 
        -0.003043293720111251, 
        -2.7281198501586914, 
        -0.05160951986908913, 
        -0.04232913628220558, 
        0.04795648530125618, 
        -0.06867939978837967, 
        -0.1498502641916275, 
        -0.09524776041507721, 
        -0.11304100602865219, 
        0.08588748425245285, 
        -0.05380875989794731, 
        0.057071585208177567, 
        -0.028064675629138947, 
        0.07985640317201614, 
        -0.030916016548871994, 
        -0.04289573058485985, 
        0.014203815720975399, 
        -0.02868841402232647, 
        -0.050725966691970825, 
        -0.13758739829063416, 
        0.007054630201309919, 
        -0.030977457761764526, 
        0.0031219590455293655, 
        0.008730844594538212, 
        -0.028705699369311333, 
        -0.12642765045166016, 
        -0.057267189025878906, 
        0.05437774211168289, 
        0.012172802351415157, 
        0.043198902159929276, 
        0.05342075973749161, 
        -0.020627280697226524, 
        -0.16304032504558563, 
        -0.006552663631737232, 
        -0.02248244546353817, 
        -0.11264016479253769, 
        -0.07251686602830887, 
        -0.013693227432668209, 
        0.008231168612837791, 
        0.05185899883508682, 
        -0.03030736930668354, 
        0.001570200314745307, 
        0.02410627342760563, 
        -0.061725448817014694, 
        -0.014107262715697289, 
        -0.051151055842638016, 
        -0.035624828189611435, 
        0.013165141455829144, 
        -0.10934663563966751, 
        -0.12272951751947403, 
        -0.03948487713932991, 
        -0.20298397541046143, 
        -0.08681625127792358, 
        -0.029059872031211853, 
        0.026183241978287697, 
        -0.09147346019744873, 
        -0.06545421481132507, 
        0.008026680909097195, 
        0.011912546120584011, 
        -0.11242849379777908, 
        0.06705460697412491, 
        -0.08458811789751053, 
        -0.060676459223032, 
        -0.023410925641655922, 
        -0.06853535026311874, 
        -0.0028873293194919825, 
        -0.09829049557447433, 
        -0.019746528938412666, 
        -0.30485954880714417, 
        0.11340805888175964, 
        0.007258495781570673, 
        -0.06593358516693115, 
        -0.03303221985697746, 
        -0.06745622307062149, 
        0.008724168874323368, 
        -0.06441601365804672, 
        0.00138220121152699, 
        -0.05305042862892151, 
        0.015468345023691654, 
        -0.3648216426372528, 
        0.04634271189570427, 
        -0.43717512488365173, 
        -0.2367972433567047, 
        0.00898265652358532, 
        0.017707951366901398, 
        0.14452998340129852, 
        -0.10221441835165024, 
        -0.019838443025946617, 
        -0.014846861362457275, 
        0.06607115268707275, 
        -0.031086424365639687, 
        -0.43733641505241394, 
        -0.13769806921482086, 
        -0.12764914333820343, 
        -0.002108177402988076, 
        -0.08546216785907745, 
        -0.08971595019102097, 
        -0.07275320589542389, 
        -0.11996039003133774, 
        0.027797147631645203, 
        -0.06860914826393127, 
        -0.10893671214580536, 
        -0.024540333077311516, 
        -0.014329424127936363, 
        -0.011659114621579647, 
        -0.10689343512058258, 
        0.0004485111276153475, 
        -0.004426239524036646, 
        -0.028175603598356247, 
        -0.15875229239463806, 
        0.09331546723842621, 
        -0.02904989942908287, 
        -0.031669922173023224, 
        -0.014279345981776714, 
        -0.04838496074080467, 
        0.031570225954055786, 
        -0.07507576793432236, 
        -0.07330771535634995, 
        -0.050597235560417175, 
        0.02610675059258938, 
        -0.008881071582436562, 
        -0.03176445513963699, 
        -0.072989821434021, 
        -0.029743140563368797, 
        -0.03212963417172432, 
        -0.09973270446062088, 
        0.011566423811018467, 
        -0.04930071532726288, 
        -0.1988864541053772, 
        0.10841070115566254, 
        -0.005611429922282696, 
        -0.09139727801084518, 
        0.07277597486972809, 
        0.005643587559461594, 
        -0.04485944285988808, 
        0.034719016402959824, 
        -0.14236299693584442, 
        -0.07086315751075745, 
        -0.06662648916244507, 
        -0.2357719987630844, 
        0.008972948417067528, 
        -0.3472355306148529, 
        -0.17768312990665436, 
        -0.011199884116649628, 
        0.014999806880950928, 
        0.04155096784234047, 
        -0.07131248712539673, 
        0.19926851987838745, 
        0.04843407869338989, 
        -0.021904777735471725, 
        0.0760275349020958, 
        -0.19827835261821747, 
        -0.019789783284068108, 
        -0.042173054069280624, 
        -0.04364069923758507, 
        -0.02872912585735321, 
        -0.11539092659950256, 
        -0.04369069263339043, 
        -0.10970621556043625, 
        -0.03957156464457512, 
        0.05528823658823967, 
        0.024687007069587708, 
        0.019977131858468056, 
        0.03930174931883812, 
        -0.0007957081543281674, 
        0.009746603667736053, 
        -0.07904599606990814, 
        0.009957617148756981, 
        0.0328759104013443, 
        -0.0028185744304209948, 
        0.010761735029518604, 
        -0.0515560656785965, 
        -0.05373752489686012, 
        -0.06997543573379517, 
        0.03836243972182274, 
        -0.011328584514558315, 
        -0.02161565236747265, 
        -0.0800858587026596, 
        0.020122438669204712, 
        -0.006487167906016111, 
        0.003468970535323024, 
        -0.07284075766801834, 
        0.00809304229915142, 
        -0.07458529621362686, 
        0.027826620265841484, 
        0.00032486493000760674, 
        -0.13552577793598175, 
        0.0065962038934230804, 
        -0.1323712319135666, 
        -0.007372172549366951, 
        -0.032220084220170975, 
        -0.029193991795182228, 
        0.0052686347626149654, 
        -0.021982574835419655, 
        -0.050009485334157944, 
        -0.019707493484020233, 
        -0.0665280818939209, 
        -0.029372218996286392, 
        0.018172448500990868, 
        -0.0026404138188809156, 
        -0.0971129834651947, 
        -0.05792248249053955, 
        -0.018776629120111465, 
        -0.09395955502986908, 
        -0.044542066752910614, 
        0.001701247412711382, 
        -0.06189737841486931, 
        -0.0002736476017162204, 
        0.04016290232539177, 
        0.016481032595038414, 
        -0.0711541622877121, 
        -0.12128118425607681, 
        -0.1680830866098404, 
        -0.01896461844444275, 
        -0.004941215272992849, 
        0.04389788582921028, 
        -0.1976911574602127, 
        -0.026952126994729042, 
        -0.5516462326049805, 
        0.1015903651714325, 
        -0.07766435295343399, 
        -0.1315208226442337, 
        0.14341165125370026, 
        0.0243452787399292, 
        -0.021599411964416504, 
        -0.0033570833038538694, 
        0.07387354224920273, 
        -0.12358469516038895, 
        -0.09600617736577988, 
        -0.26956707239151, 
        0.02088114432990551, 
        -0.6028624176979065, 
        -0.26072147488594055, 
        -0.10306617617607117, 
        -0.016127031296491623, 
        0.14427950978279114, 
        -0.03608282282948494, 
        0.05588298663496971, 
        0.00510243559256196, 
        -0.02970353327691555, 
        0.04515274241566658, 
        -0.8105840682983398, 
        -0.07736331224441528, 
        -0.05911452695727348, 
        -0.041752349585294724, 
        -0.10150308907032013, 
        -0.06010781601071358, 
        -0.02416224777698517, 
        -0.0795850083231926, 
        -0.04816889762878418, 
        0.1394874006509781, 
        -0.01905282773077488, 
        -0.023812836036086082, 
        -0.05554667487740517, 
        0.08067435771226883, 
        0.00015495547268074006, 
        -0.059020280838012695, 
        -0.044754788279533386, 
        -0.09652359038591385, 
        -0.006085122469812632, 
        0.028269728645682335, 
        -0.05440725386142731, 
        0.027252763509750366, 
        -0.0672905221581459, 
        -0.009146085940301418, 
        -0.02036527916789055, 
        -0.09610378742218018, 
        -0.03071884997189045, 
        0.011087645776569843, 
        -0.025811776518821716, 
        0.005446877330541611, 
        -0.021134207025170326, 
        -9.4044189453125, 
        -2.212015151977539, 
        -0.025620732456445694, 
        -0.0811629518866539, 
        -2.7318689823150635, 
        -8.205649375915527, 
        0.3327232003211975, 
        0.010162660852074623, 
        0.01570836640894413, 
        -0.037305548787117004, 
        0.07661064714193344, 
        0.005034552421420813, 
        0.022617053240537643, 
        0.021509220823645592, 
        -0.038546375930309296, 
        1.5069793462753296, 
        -4.461832046508789, 
        0.4385486841201782, 
        0.07361787557601929, 
        -0.4954204261302948, 
        0.031004495918750763, 
        0.07513654232025146, 
        -0.05327165871858597, 
        0.09664135426282883, 
        0.01346890814602375, 
        -0.011072838678956032, 
        -0.01765194907784462, 
        0.029980352148413658, 
        0.014137293212115765, 
        -0.016762668266892433, 
        -0.8091429471969604, 
        -1.8376598358154297, 
        -0.09080441296100616, 
        -0.4570661187171936, 
        -1.3750791549682617, 
        -1.255634069442749, 
        -0.061011504381895065, 
        0.025475574657320976, 
        -0.031409770250320435, 
        -0.35739660263061523, 
        -0.2001827508211136, 
        0.01575908437371254, 
        -0.06186925619840622, 
        0.005483640823513269, 
        -0.05563436076045036, 
        -1.2927401065826416, 
        -0.4863234758377075, 
        0.07101130485534668, 
        -0.14872324466705322, 
        -0.06781764328479767, 
        0.10604269802570343, 
        -0.09259537607431412, 
        0.04494047537446022, 
        -0.2889156639575958, 
        -0.0018726192647591233, 
        0.032196491956710815, 
        -0.11089543253183365, 
        -0.04801257699728012, 
        0.054955288767814636, 
        -0.2988015115261078, 
        -0.124796062707901, 
        -0.07561038434505463, 
        -0.036385077983140945, 
        -0.02309979312121868, 
        -0.030717942863702774, 
        -0.02085810713469982, 
        -0.010724985972046852, 
        -0.05920712649822235, 
        0.03300945833325386, 
        -0.1072239875793457, 
        -0.0411975271999836, 
        -0.0026122217532247305, 
        0.040275461971759796, 
        -0.04413602873682976, 
        0.02030099742114544, 
        0.033142153173685074, 
        0.026286983862519264, 
        -0.05416036769747734, 
        0.04835449531674385, 
        -0.07567302137613297, 
        -0.08831213414669037, 
        0.008650648407638073, 
        0.03408336266875267, 
        -0.03397448733448982, 
        0.0013609707821160555, 
        -0.06359365582466125, 
        0.0006777493981644511, 
        -0.003519555553793907, 
        0.04704660177230835, 
        -0.13813775777816772, 
        -0.11523309350013733, 
        -0.10757811367511749, 
        0.01761430688202381, 
        -0.007879494689404964, 
        0.019098592922091484, 
        -0.03490065038204193, 
        -0.07991520315408707, 
        0.0746479257941246, 
        -0.00208884384483099, 
        -0.11249960213899612, 
        -0.05432792007923126, 
        0.01970267854630947, 
        -0.028775734826922417, 
        -0.060818322002887726, 
        0.0792706310749054, 
        0.02818501554429531, 
        0.015264815650880337, 
        -0.1166689544916153, 
        0.006362054031342268, 
        -0.2030463069677353, 
        -0.022885816171765327, 
        -0.051175445318222046, 
        -0.06468414515256882, 
        -0.00989422108978033, 
        -0.003206169931218028, 
        0.018157759681344032, 
        0.04173685610294342, 
        0.018958542495965958, 
        0.0058127897791564465, 
        -0.1158791333436966, 
        -0.2525670826435089, 
        -0.0004620604740921408, 
        0.02007952332496643, 
        -0.1205817237496376, 
        -0.13376329839229584, 
        -0.1447003036737442, 
        0.0020830605644732714, 
        -0.06700948625802994, 
        0.0036727290134876966, 
        -0.021644476801156998, 
        -0.05542530491948128, 
        0.024301914498209953, 
        -0.06760116666555405, 
        -0.05194859579205513, 
        -0.017070714384317398, 
        -0.1552123725414276, 
        -0.006404687650501728, 
        -0.003563183592632413, 
        0.012078942731022835, 
        -0.07866012305021286, 
        -0.06883574277162552, 
        0.0374467670917511, 
        0.0353870652616024, 
        -0.08157128840684891, 
        -0.04541085287928581, 
        0.0011336306342855096, 
        0.061251215636730194, 
        0.018730411306023598, 
        -0.12779700756072998, 
        -0.04320720210671425, 
        -0.08327900618314743, 
        -0.02334604039788246, 
        0.012659181840717793, 
        0.04985108971595764, 
        -0.023044278845191002, 
        -0.029164060950279236, 
        -0.01665874943137169, 
        0.01764840818941593, 
        0.11044342070817947, 
        -0.04066292941570282, 
        -0.07031293213367462, 
        0.014451824128627777, 
        -0.03341193497180939, 
        -0.05747092887759209, 
        0.040785372257232666, 
        -0.06707456707954407, 
        -0.09104430675506592, 
        -0.02015196718275547, 
        -0.059942252933979034, 
        -0.054297879338264465, 
        0.01082678884267807, 
        -0.03260115906596184, 
        0.014126378111541271, 
        -0.00683789886534214, 
        -0.05761454254388809, 
        0.015101195313036442, 
        0.01941612921655178, 
        0.03681076690554619, 
        0.05167876556515694, 
        0.01152291614562273, 
        -0.07101427018642426, 
        -0.011349539272487164, 
        0.019736526533961296, 
        0.046879593282938004, 
        -0.04738813266158104, 
        -0.05404195562005043, 
        -0.08797258883714676, 
        0.0478096529841423, 
        0.050906386226415634, 
        -0.07246320694684982, 
        -0.07938790321350098, 
        -0.030999213457107544, 
        -0.004548309836536646, 
        0.03136381879448891, 
        -0.027728527784347534, 
        0.008144110441207886, 
        -0.0005238832673057914, 
        -0.16086572408676147, 
        -0.009019838646054268, 
        -0.1725238412618637, 
        -0.010988340713083744, 
        0.016600389033555984, 
        0.07678250223398209, 
        0.09382982552051544, 
        -8.81594605743885e-05, 
        0.11264552921056747, 
        0.046519361436367035, 
        -0.07575813680887222, 
        -0.003423490794375539, 
        -0.21515688300132751, 
        -0.08320225030183792, 
        -0.02732264995574951, 
        -0.04913463070988655, 
        0.04886944591999054, 
        -0.049828045070171356, 
        -0.06821352988481522, 
        -0.008094058372080326, 
        -0.028684068471193314, 
        -0.030557993799448013, 
        -0.04191908240318298, 
        -0.07401572912931442, 
        -0.04370562359690666, 
        0.0003497330762911588, 
        -0.005741201341152191, 
        0.11159622669219971, 
        -0.03612082824110985, 
        -0.08864597231149673, 
        0.03011343814432621, 
        -0.09745892137289047, 
        -0.1553063988685608, 
        -0.06701870262622833, 
        -0.00045897773816250265, 
        -0.06347621977329254, 
        0.013249793089926243, 
        -0.059488970786333084, 
        -0.04418414086103439, 
        -0.0032683443278074265, 
        -0.12547849118709564, 
        -0.007256123702973127, 
        -0.0774676576256752, 
        -0.040103502571582794, 
        -0.01678904891014099, 
        -0.05257091671228409, 
        0.011202750727534294, 
        -0.0566989965736866, 
        -0.11957138776779175, 
        -0.016818732023239136, 
        0.040286630392074585, 
        0.0014088362222537398, 
        -0.028688061982393265, 
        -0.041034795343875885, 
        0.04597797244787216, 
        0.02275947295129299, 
        0.06523079425096512, 
        -0.013740912079811096, 
        -0.016108814626932144, 
        -0.11226820200681686, 
        -0.08842895179986954, 
        0.04100906848907471, 
        -0.020703976973891258, 
        -0.05653880909085274, 
        0.04689791053533554, 
        0.04409702122211456, 
        -0.04197269305586815, 
        -0.032662585377693176, 
        -0.07894620299339294, 
        0.054037678986787796, 
        0.02432416006922722, 
        0.017591027542948723, 
        -0.09719399362802505, 
        -0.025781704112887383, 
        -0.10589315742254257, 
        0.002604936482384801, 
        -0.04865901917219162, 
        0.02982347086071968, 
        -0.01839645393192768, 
        -0.06279771029949188, 
        0.07316534221172333, 
        -0.0076793828047811985, 
        -0.061510730534791946, 
        -0.05817601457238197, 
        -0.02968466281890869, 
        0.12077421694993973, 
        0.02945404127240181, 
        0.013168263249099255, 
        -0.05111723020672798, 
        -0.026943668723106384, 
        0.03539833426475525, 
        -0.09377986937761307, 
        -0.04188060387969017, 
        0.006539518944919109, 
        0.07092111557722092, 
        -0.04138447716832161, 
        -0.052227750420570374, 
        -0.008268306963145733, 
        0.002659672172740102, 
        0.020269254222512245, 
        0.0246469397097826, 
        -0.025657637044787407, 
        -0.021057572215795517, 
        -0.14263954758644104, 
        -0.06549645960330963, 
        0.03432721644639969, 
        0.00301381410099566, 
        -0.1093180850148201, 
        -0.09689543396234512, 
        -0.07311199605464935, 
        -0.058364272117614746, 
        0.057202454656362534, 
        0.023028312250971794, 
        -0.034975454211235046, 
        -0.008727483451366425, 
        -0.04186433181166649, 
        0.08335575461387634, 
        -0.015727996826171875, 
        -0.04616045579314232, 
        -0.013384644873440266, 
        -0.07545273751020432, 
        0.036888014525175095, 
        -0.1035732850432396, 
        -0.08868945389986038, 
        -0.02062859944999218, 
        0.02183145470917225, 
        -0.027098393067717552, 
        0.04613453522324562, 
        0.005402049515396357, 
        0.003062130883336067, 
        -0.0029253861866891384, 
        -0.04932107776403427, 
        0.0160880945622921, 
        -0.008989939466118813, 
        -0.04865778237581253, 
        0.005417481064796448, 
        0.035831741988658905, 
        -0.05466700345277786, 
        -0.07928487658500671, 
        -0.13717634975910187, 
        0.07592056691646576, 
        -0.022878602147102356, 
        -0.05566972494125366, 
        -0.02934309095144272, 
        -0.046002138406038284, 
        -0.05046093091368675, 
        -0.033317431807518005, 
        -0.12290091812610626, 
        -0.024821804836392403, 
        -0.03617100790143013, 
        0.014112213626503944, 
        0.05522780492901802, 
        -0.019830087199807167, 
        -0.013772531412541866, 
        -0.008596224710345268, 
        0.026646634563803673, 
        -0.019191037863492966, 
        -0.06657195091247559, 
        0.0032071969471871853, 
        -0.08475837111473083, 
        0.05598018690943718, 
        0.02005815878510475, 
        -0.03466540202498436, 
        -0.16118600964546204, 
        -0.057384930551052094, 
        -0.00874201487749815, 
        -0.021181639283895493, 
        0.042869362980127335, 
        -0.053817082196474075, 
        -0.05175820738077164, 
        0.030516650527715683, 
        0.008287988603115082, 
        -0.0007625363068655133, 
        -0.0019032490672543645, 
        -0.10642503947019577, 
        0.007331958506256342, 
        0.05475233867764473, 
        -0.05771131440997124, 
        -0.053114358335733414, 
        -0.07138451933860779, 
        -0.10909213870763779, 
        -0.015888037160038948, 
        -0.011944186873733997, 
        -0.144128680229187, 
        0.05260320007801056, 
        -0.03282161429524422, 
        0.06886463612318039, 
        0.01587512157857418, 
        0.1219983696937561, 
        0.039014868438243866, 
        0.013115601614117622, 
        -0.006283266004174948, 
        -0.12599575519561768, 
        -0.9382443428039551, 
        -3.186049222946167, 
        0.02376209758222103, 
        -0.047759704291820526, 
        -2.1642303466796875, 
        -2.2632367610931396, 
        -0.09647341072559357, 
        0.01907488889992237, 
        0.00041160854743793607, 
        0.0004535340121947229, 
        -0.06848450750112534, 
        0.030222315341234207, 
        -0.040145523846149445, 
        0.03855651989579201, 
        -0.006872165948152542, 
        -1.358864426612854, 
        -0.8612529635429382, 
        0.34312888979911804, 
        -0.003667903831228614, 
        -0.2091236412525177, 
        0.029168298467993736, 
        0.04523682966828346, 
        -0.04472508281469345, 
        -0.13750119507312775, 
        -0.026010943576693535, 
        0.007382887415587902, 
        0.02319950796663761, 
        0.03967602550983429, 
        0.03764601796865463, 
        -0.310021311044693, 
        0.3418457806110382, 
        0.8412045836448669, 
        -0.018116725608706474, 
        -0.048316217958927155, 
        0.11252552270889282, 
        0.24348489940166473, 
        -0.36909136176109314, 
        0.0067632426507771015, 
        0.0052519869059324265, 
        0.00953192263841629, 
        0.04435311257839203, 
        0.03031306341290474, 
        -0.03203146532177925, 
        0.08415104448795319, 
        -0.012876072898507118, 
        0.4336925745010376, 
        0.15764665603637695, 
        -0.329502135515213, 
        0.07107848674058914, 
        -1.0261294841766357, 
        0.01926635019481182, 
        -0.1089523434638977, 
        -0.002575209131464362, 
        0.1217670738697052, 
        -0.06757821142673492, 
        -0.011305464431643486, 
        -0.026424715295433998, 
        0.04719842970371246, 
        0.07122638821601868, 
        0.05671051889657974, 
        -0.14032335579395294, 
        -0.022929934784770012, 
        -0.025519102811813354, 
        -0.07022030651569366, 
        -0.03565799817442894, 
        -0.04747825860977173, 
        -0.1245977133512497, 
        0.12351115047931671, 
        -0.006265412550419569, 
        -0.11752744019031525, 
        0.008394227363169193, 
        -0.046515680849552155, 
        -0.07736789435148239, 
        -0.009194388054311275, 
        0.08498504012823105, 
        -0.03079325146973133, 
        -0.09535510092973709, 
        -0.11618337035179138, 
        -0.08148570358753204, 
        -0.3441070318222046, 
        -0.12812112271785736, 
        0.03813636675477028, 
        -0.004701751749962568, 
        -0.04072819650173187, 
        -0.006898096296936274, 
        0.0019886561203747988, 
        0.07013817131519318, 
        0.08324629068374634, 
        0.01254658866673708, 
        -0.24342025816440582, 
        0.06439424306154251, 
        -0.07652666419744492, 
        -0.0003548547683749348, 
        0.11563290655612946, 
        -0.020079145208001137, 
        -0.0862586721777916, 
        0.04171036183834076, 
        0.06597273051738739, 
        0.004787370562553406, 
        -0.10028363019227982, 
        0.07051089406013489, 
        -0.056162118911743164, 
        0.07320918142795563, 
        -0.024033764377236366, 
        0.1421753317117691, 
        -0.058313339948654175, 
        -0.04713652282953262, 
        -0.34541285037994385, 
        0.0404568612575531, 
        -0.2812352478504181, 
        -0.27980178594589233, 
        0.056882940232753754, 
        0.019172167405486107, 
        -0.04032440483570099, 
        -0.052490897476673126, 
        0.024866867810487747, 
        -0.06165914237499237, 
        0.04389664903283119, 
        0.024080447852611542, 
        -0.2557263672351837
      ]
    }, 
    {
      "activation": "rectified", 
      "architecture": "dense", 
      "bias": [
        -0.1646016240119934, 
        -0.07954391092061996, 
        -0.5919960141181946, 
        -0.1457577347755432, 
        -0.22669067978858948, 
        -0.43092262744903564, 
        -0.4551580548286438, 
        -0.056421007961034775, 
        -0.41788265109062195, 
        -0.3951191306114197, 
        -0.3185700476169586, 
        -0.02691792882978916, 
        -0.23407024145126343, 
        -0.2473456859588623, 
        -0.010126647539436817, 
        -0.058634884655475616, 
        -0.13779698312282562, 
        -0.22447971999645233, 
        -0.12632285058498383, 
        -0.4242731034755707, 
        -0.4840724766254425, 
        -0.1439911127090454, 
        -0.31663694977760315, 
        -0.22810232639312744, 
        -0.2922291159629822, 
        -0.22218464314937592, 
        -0.09390322864055634, 
        -0.1973925679922104, 
        -0.006138861645013094, 
        -0.22022207081317902
      ], 
      "weights": [
        -0.032236650586128235, 
        -0.19393950700759888, 
        0.0056870924308896065, 
        0.0029888141434639692, 
        0.10944373160600662, 
        -0.0608050636947155, 
        -0.09486228227615356, 
        -0.019977141171693802, 
        0.04058734327554703, 
        -0.048756979405879974, 
        0.07298780977725983, 
        -0.09598814696073532, 
        -0.020425138995051384, 
        -0.04230966046452522, 
        0.17954106628894806, 
        -0.016817444935441017, 
        -0.028265709057450294, 
        0.06315536051988602, 
        -0.057313743978738785, 
        0.022871721535921097, 
        0.07113945484161377, 
        0.09840528666973114, 
        -0.015731483697891235, 
        0.0340300090610981, 
        -0.01969333551824093, 
        0.06261542439460754, 
        -0.06291666626930237, 
        -0.015726320445537567, 
        -0.052929915487766266, 
        0.018892358988523483, 
        0.0010424336651340127, 
        -0.13918696343898773, 
        -0.028006702661514282, 
        -0.06279804557561874, 
        0.0039794533513486385, 
        0.007971453480422497, 
        -0.006187696009874344, 
        0.1268892139196396, 
        -0.003841223195195198, 
        -0.008162920363247395, 
        -0.07495618611574173, 
        -0.015883924439549446, 
        0.0674462541937828, 
        -0.009389106184244156, 
        -0.08147283643484116, 
        0.04841959848999977, 
        -0.017369043081998825, 
        0.10773572325706482, 
        -0.035962264984846115, 
        0.05784114450216293, 
        0.0012172209098935127, 
        0.02056914195418358, 
        0.02261456847190857, 
        -0.0001998364896280691, 
        0.10982584953308105, 
        0.019328197464346886, 
        -0.05452338978648186, 
        -0.08492746949195862, 
        -0.011326080188155174, 
        0.04650391638278961, 
        -0.037287577986717224, 
        -0.0625309869647026, 
        -0.650478184223175, 
        -0.14179691672325134, 
        -0.077816441655159, 
        -0.04554976895451546, 
        -0.09958796948194504, 
        0.02337835356593132, 
        0.10794588178396225, 
        0.09945127367973328, 
        0.07171941548585892, 
        -0.12868565320968628, 
        -0.005246349144726992, 
        -0.12379975616931915, 
        0.20277619361877441, 
        -0.023969469591975212, 
        -0.11829806864261627, 
        0.09686911106109619, 
        -0.03866680711507797, 
        -0.04744601994752884, 
        0.07935936748981476, 
        0.036093611270189285, 
        -0.023679355159401894, 
        -0.029661882668733597, 
        0.08338532596826553, 
        0.04298238083720207, 
        -0.12242801487445831, 
        -0.8264975547790527, 
        -0.13177967071533203, 
        0.042465537786483765, 
        -0.1282082498073578, 
        -0.046594347804784775, 
        -0.0452752560377121, 
        -0.008944226428866386, 
        -0.01623988337814808, 
        -0.019175328314304352, 
        -0.08216971904039383, 
        0.014590083621442318, 
        -0.042585983872413635, 
        -0.03129037469625473, 
        0.04764794558286667, 
        -0.06603091955184937, 
        -0.07514909654855728, 
        -0.07315314561128616, 
        0.08977711200714111, 
        0.08753751963376999, 
        0.018176384270191193, 
        0.034616533666849136, 
        -0.012965635396540165, 
        -0.09950748085975647, 
        -0.0956355556845665, 
        -0.01350250095129013, 
        0.031131867319345474, 
        -0.01134142279624939, 
        0.04202462360262871, 
        -0.01140529289841652, 
        -0.0019337517442181706, 
        -0.07026580721139908, 
        0.07957388460636139, 
        0.0032301023602485657, 
        -0.13798415660858154, 
        -0.14873303472995758, 
        -0.023808997124433517, 
        0.022593064233660698, 
        -0.08528894931077957, 
        -0.08631772547960281, 
        0.04143472760915756, 
        0.03868807107210159, 
        -0.043748512864112854, 
        -0.022769130766391754, 
        -0.0007135787745937705, 
        0.037323594093322754, 
        0.04452637955546379, 
        -0.16886262595653534, 
        0.0715877041220665, 
        -0.09396781027317047, 
        -0.044341448694467545, 
        0.00047854779404588044, 
        -0.04369240626692772, 
        0.02556418441236019, 
        0.03671428933739662, 
        0.03285287320613861, 
        -0.001563509926199913, 
        0.009200281463563442, 
        0.05594915896654129, 
        0.05806750804185867, 
        -0.0006895376718603075, 
        -0.018841223791241646, 
        -0.027765512466430664, 
        -0.0013486052630469203, 
        -0.19165055453777313, 
        -0.38854536414146423, 
        -0.018953442573547363, 
        -0.06895441561937332, 
        -0.03915990889072418, 
        -0.026492642238736153, 
        -0.006882613990455866, 
        0.1355988085269928, 
        0.07470827549695969, 
        0.014758131466805935, 
        -0.07418518513441086, 
        -0.033894192427396774, 
        -0.02877715416252613, 
        -0.4718913435935974, 
        0.07630512118339539, 
        -0.06217355653643608, 
        -0.00630295742303133, 
        -0.015857016667723656, 
        -0.0402795784175396, 
        0.008584187366068363, 
        -0.08316855132579803, 
        0.12711863219738007, 
        0.018930094316601753, 
        -0.0019739957060664892, 
        0.0312331710010767, 
        0.02618800289928913, 
        -0.03901798278093338, 
        -0.023502398282289505, 
        -0.07548055052757263, 
        -0.010844938457012177, 
        -0.05286537483334541, 
        -0.5533456206321716, 
        -0.08750578761100769, 
        -0.001397824613377452, 
        -0.10932409018278122, 
        -0.04539844021201134, 
        0.15242323279380798, 
        -0.015589991584420204, 
        0.0432516410946846, 
        -0.02332279086112976, 
        -0.027830246835947037, 
        0.009683247655630112, 
        -0.06322091817855835, 
        -0.4016694724559784, 
        0.03366522490978241, 
        -0.034077126532793045, 
        -0.0176153052598238, 
        -0.035579197108745575, 
        0.03181973099708557, 
        0.051167916506528854, 
        -0.032603919506073, 
        -0.02626648359000683, 
        0.024002160876989365, 
        0.030463840812444687, 
        0.04105738550424576, 
        0.0725114569067955, 
        -0.22700706124305725, 
        -0.03118109703063965, 
        0.027285439893603325, 
        0.014057543128728867, 
        -0.0186028890311718, 
        0.26570552587509155, 
        -0.23813994228839874, 
        0.0374775268137455, 
        0.011984743177890778, 
        -0.01847153529524803, 
        -0.026456428691744804, 
        0.01168082281947136, 
        -0.11920551210641861, 
        -0.022515468299388885, 
        0.054344888776540756, 
        0.07819923013448715, 
        0.008341088891029358, 
        -0.02493658848106861, 
        0.0275400560349226, 
        0.012747636064887047, 
        0.10126300901174545, 
        -0.017546426504850388, 
        0.03648659586906433, 
        0.04443851485848427, 
        0.06040395796298981, 
        0.020210498943924904, 
        -0.04867032542824745, 
        -0.04216747358441353, 
        -0.043092574924230576, 
        -0.02965361252427101, 
        0.02646714821457863, 
        -1.1806870698928833, 
        0.037172794342041016, 
        0.041048645973205566, 
        -0.2056991308927536, 
        -0.06274077296257019, 
        -0.01602044887840748, 
        0.03621494770050049, 
        -0.0022839705925434828, 
        0.007067559752613306, 
        0.03069431334733963, 
        -0.04082906246185303, 
        -0.009924131445586681, 
        0.017022106796503067, 
        -0.03726920858025551, 
        0.16098560392856598, 
        -0.031055869534611702, 
        -0.26509013772010803, 
        -0.19769985973834991, 
        0.035158779472112656, 
        -0.01763942651450634, 
        -0.0027062848675996065, 
        0.05043695867061615, 
        0.03429484739899635, 
        0.0425737090408802, 
        -0.085622139275074, 
        -0.06703127175569534, 
        0.06584751605987549, 
        -0.08930620551109314, 
        -0.03556327894330025, 
        0.06941872835159302, 
        -0.44697585701942444, 
        -0.03375149145722389, 
        -0.02631351910531521, 
        0.036326587200164795, 
        -0.24590712785720825, 
        -0.03497932106256485, 
        -0.02552095055580139, 
        -0.029417231678962708, 
        -0.04899368807673454, 
        0.1325467973947525, 
        0.0005401900270953774, 
        -0.04119732230901718, 
        0.013312586583197117, 
        3.1441060855286196e-05, 
        -0.09440431743860245, 
        0.01839989610016346, 
        -0.0687587782740593, 
        0.05144262686371803, 
        -0.060515958815813065, 
        -0.1053556278347969, 
        -0.03417649865150452, 
        0.047191597521305084, 
        0.014956402592360973, 
        -0.0013497882755473256, 
        -0.014460337348282337, 
        -0.016356956213712692, 
        -0.034884508699178696, 
        0.03860754147171974, 
        -0.03900521248579025, 
        0.10662633180618286, 
        -0.047716256231069565, 
        0.008901968598365784, 
        -0.05665713921189308, 
        0.014880873262882233, 
        -0.005858874414116144, 
        -0.3843517601490021, 
        0.04314911738038063, 
        0.019793638959527016, 
        0.07153568416833878, 
        0.03272932395339012, 
        -0.02644769661128521, 
        -0.045306235551834106, 
        -0.013664543628692627, 
        -0.030530696734786034, 
        0.06456401944160461, 
        0.02919745445251465, 
        -0.031092684715986252, 
        -0.03977210819721222, 
        0.059435464441776276, 
        0.08438292890787125, 
        0.01867693103849888, 
        0.011508158408105373, 
        0.09912189841270447, 
        0.031839076429605484, 
        0.048423636704683304, 
        -0.02145511284470558, 
        0.08239715546369553, 
        0.0820036232471466, 
        -0.01619989424943924, 
        -0.11044441908597946, 
        -0.26134324073791504, 
        0.0009077357826754451, 
        0.004608697257936001, 
        -0.041553255170583725, 
        -0.11814158409833908, 
        -0.11701783537864685, 
        -0.01240839995443821, 
        -0.01248706504702568, 
        0.01657734625041485, 
        -0.006423718295991421, 
        -0.027994273230433464, 
        -0.023251397535204887, 
        0.06372328102588654, 
        0.008776543661952019, 
        -0.04760151728987694, 
        0.050699349492788315, 
        -0.06176053732633591, 
        -0.09672515839338303, 
        0.001340988907031715, 
        -0.10228507220745087, 
        0.0622895248234272, 
        0.10670817643404007, 
        -0.021398741751909256, 
        0.10577959567308426, 
        0.03472118824720383, 
        0.01164801511913538, 
        -0.003784502623602748, 
        -0.024677535519003868, 
        -0.028803110122680664, 
        -0.12347044050693512, 
        -0.16544532775878906, 
        -0.08031842857599258, 
        -0.10793781280517578, 
        -0.00753751490265131, 
        -0.04932529106736183, 
        -0.23068466782569885, 
        0.00694575859233737, 
        0.027776073664426804, 
        0.027364369481801987, 
        0.050561245530843735, 
        -0.02508590742945671, 
        -0.06807652115821838, 
        -0.034030113369226456, 
        -0.06463121622800827, 
        0.08305425941944122, 
        0.05107332766056061, 
        -0.037042807787656784, 
        -0.03219297155737877, 
        0.08025632798671722, 
        -0.021808858960866928, 
        -0.01905003748834133, 
        0.04317307099699974, 
        0.09831662476062775, 
        0.02236648090183735, 
        -0.10726279765367508, 
        0.055025503039360046, 
        0.06164853647351265, 
        0.010225102305412292, 
        -0.01888986863195896, 
        -0.04363982379436493, 
        -0.33509135246276855, 
        0.012040088884532452, 
        -0.047059960663318634, 
        0.055336736142635345, 
        -0.08992210030555725, 
        -0.1772405058145523, 
        -0.03923126310110092, 
        -0.018268879503011703, 
        -0.052070487290620804, 
        -0.032423194497823715, 
        0.01240664441138506, 
        0.03540797159075737, 
        -0.0419839583337307, 
        -0.009132644161581993, 
        -0.09398879110813141, 
        0.02697906456887722, 
        -0.10681319981813431, 
        -0.02905328758060932, 
        -0.036107566207647324, 
        -0.1267240345478058, 
        -0.09736787527799606, 
        0.013436938636004925, 
        -0.01563691534101963, 
        -0.09277264773845673, 
        0.04182540997862816, 
        -0.010018308646976948, 
        -0.07889340072870255, 
        0.006262257695198059, 
        -0.023253334686160088, 
        0.003869312582537532, 
        -0.08023553341627121, 
        0.005123540759086609, 
        -0.07902883738279343, 
        -0.09894448518753052, 
        -0.04364260286092758, 
        -0.011423849500715733, 
        -0.07837698608636856, 
        -0.04240000247955322, 
        0.06283535808324814, 
        -0.0422670915722847, 
        0.0717087984085083, 
        0.03543737903237343, 
        -0.10085447132587433, 
        -0.047689035534858704, 
        -0.10239043831825256, 
        0.03936995938420296, 
        -0.09689339995384216, 
        -0.06311114132404327, 
        0.03212007135152817, 
        0.028186220675706863, 
        0.03788698464632034, 
        -0.028860213235020638, 
        0.02300857938826084, 
        -0.07203269749879837, 
        0.04709742218255997, 
        0.010403726249933243, 
        -0.08450545370578766, 
        0.03141395002603531, 
        0.008353459648787975, 
        -0.01190477330237627, 
        -0.017054786905646324, 
        -0.02982671931385994, 
        -0.044539257884025574, 
        0.0464792437851429, 
        -0.010181144811213017, 
        -0.09835673868656158, 
        0.050687093287706375, 
        -0.012003044597804546, 
        -0.015180764719843864, 
        0.07048158347606659, 
        0.01419837400317192, 
        0.008759884163737297, 
        -0.02314712293446064, 
        -0.005367059260606766, 
        0.05064370483160019, 
        0.011462399736046791, 
        -0.0650351420044899, 
        0.162851482629776, 
        0.03304659202694893, 
        -0.0396818183362484, 
        -0.018902719020843506, 
        0.02389225922524929, 
        0.054510124027729034, 
        -0.044748250395059586, 
        0.021638689562678337, 
        -0.015646742656826973, 
        0.047787103801965714, 
        -0.008079996332526207, 
        0.052908629179000854, 
        -0.048637740314006805, 
        -0.09442471712827682, 
        -0.013129910454154015, 
        0.01985042914748192, 
        -0.06033236160874367, 
        -0.07859213650226593, 
        -0.037868957966566086, 
        -0.029336700215935707, 
        -0.009479771368205547, 
        -0.058159034699201584, 
        0.03579740226268768, 
        0.07535170018672943, 
        -0.014300055801868439, 
        -0.052080389112234116, 
        -0.010084045119583607, 
        0.009920070879161358, 
        0.0625327005982399, 
        -0.19642046093940735, 
        0.1278276890516281, 
        0.051615454256534576, 
        0.03536203131079674, 
        -0.1167442798614502, 
        0.03070712462067604, 
        0.022807540372014046, 
        -0.031931329518556595, 
        -0.10088174045085907, 
        -0.04183817654848099, 
        -0.04571831226348877, 
        -0.04318564385175705, 
        -0.03811096400022507, 
        -0.08303303271532059, 
        -0.1299522966146469, 
        -0.09777767956256866, 
        0.07173304259777069, 
        -0.021642277017235756, 
        -0.03584401309490204, 
        -0.2625410556793213, 
        -0.09912581741809845, 
        0.06759127229452133, 
        -0.007637716364115477, 
        0.06205032393336296, 
        0.04726951941847801, 
        0.051827382296323776, 
        -0.021034669131040573, 
        -0.06671369075775146, 
        -0.0457160659134388, 
        0.007806987501680851, 
        -0.09284244477748871, 
        -0.06854704022407532, 
        0.042187005281448364, 
        -0.08324722945690155, 
        0.04039157181978226, 
        -0.037716202437877655, 
        0.04115994647145271, 
        -0.07960634678602219, 
        0.0028350872453302145, 
        0.08387065678834915, 
        0.0131837772205472, 
        0.017939087003469467, 
        0.09398137032985687, 
        -0.09051971882581711, 
        -0.315720796585083, 
        -0.09895654767751694, 
        0.0886426493525505, 
        -0.024557745084166527, 
        -0.07848269492387772, 
        -0.06495857983827591, 
        -0.03379747271537781, 
        -0.022752607241272926, 
        0.04835208132863045, 
        0.07935585081577301, 
        0.02083423361182213, 
        -0.03653206303715706, 
        -0.06853071600198746, 
        0.003382938914000988, 
        -0.03871319442987442, 
        0.03977900370955467, 
        -0.03843642398715019, 
        0.13443490862846375, 
        0.0032834059093147516, 
        0.06262756884098053, 
        -0.09809481352567673, 
        -0.025183530524373055, 
        0.032346028834581375, 
        -0.011002318933606148, 
        -0.08238603174686432, 
        -0.05851048603653908, 
        -0.027739474549889565, 
        0.00698887137696147, 
        0.08445192873477936, 
        -0.004853639751672745, 
        -0.07748042047023773, 
        -0.08395251631736755, 
        0.08497060835361481, 
        -0.10673334449529648, 
        -0.23497964441776276, 
        0.014536934904754162, 
        -0.01906619220972061, 
        -0.022904042154550552, 
        -0.005793537944555283, 
        -0.014226691797375679, 
        -0.04613104462623596, 
        -0.010493461973965168, 
        0.025969112291932106, 
        -0.038069941103458405, 
        -0.0227808877825737, 
        0.045888207852840424, 
        -0.32993263006210327, 
        0.09652809798717499, 
        -0.026147134602069855, 
        0.0057937526144087315, 
        -0.01248352974653244, 
        0.0061763571575284, 
        0.03601491078734398, 
        0.07475575804710388, 
        -0.07995394617319107, 
        -0.008675839751958847, 
        0.06153232604265213, 
        0.01705189049243927, 
        0.017416222020983696, 
        0.018046841025352478, 
        -0.0553024597465992, 
        -0.056947533041238785, 
        -0.12307491898536682, 
        -0.10728581249713898, 
        -4.582809925079346, 
        0.0009803281864151359, 
        0.08231501281261444, 
        -0.14557933807373047, 
        0.031097205355763435, 
        0.018287353217601776, 
        -0.034965068101882935, 
        -0.026772229000926018, 
        0.016106052324175835, 
        0.04025016725063324, 
        0.00780167430639267, 
        0.040453992784023285, 
        -0.12656113505363464, 
        -0.00853650737553835, 
        0.020496312528848648, 
        -0.020472010597586632, 
        0.06649836897850037, 
        0.017105121165513992, 
        -0.004897065926343203, 
        -0.008480075746774673, 
        0.006828829646110535, 
        -0.06287472695112228, 
        -0.07570267468690872, 
        -0.07582245767116547, 
        -0.02124413475394249, 
        0.0671769455075264, 
        0.25488635897636414, 
        0.01642644591629505, 
        -0.06452035903930664, 
        0.07086744159460068, 
        -0.06850332021713257, 
        -0.0003208044799976051, 
        -0.028570828959345818, 
        -0.0137965502217412, 
        0.05028438940644264, 
        0.001103848684579134, 
        0.016785427927970886, 
        0.010497204959392548, 
        -0.0410328283905983, 
        0.03710297495126724, 
        0.08775030076503754, 
        -0.008395862765610218, 
        -0.06049935892224312, 
        0.0936933383345604, 
        -0.04333076998591423, 
        0.07225847989320755, 
        -0.11221200227737427, 
        0.029609080404043198, 
        -0.007354680448770523, 
        0.045258019119501114, 
        0.053739435970783234, 
        -0.009115396998822689, 
        0.023000391200184822, 
        -0.01520337350666523, 
        0.010234122164547443, 
        -0.010363053530454636, 
        -0.13424047827720642, 
        -0.01074973400682211, 
        0.05768876522779465, 
        -0.065760537981987, 
        -0.04091503098607063, 
        -0.005006833467632532, 
        0.0781690925359726, 
        0.08086434006690979, 
        0.03850620239973068, 
        0.005531697068363428, 
        -0.008855912834405899, 
        0.08231015503406525, 
        -0.014266695827245712, 
        0.0798492431640625, 
        -0.006128334440290928, 
        0.016145827248692513, 
        -0.20805256068706512, 
        -0.011245046742260456, 
        -0.032597865909338, 
        -0.06933409720659256, 
        -0.031514592468738556, 
        -0.05543433874845505, 
        0.06012699007987976, 
        -0.01869187317788601, 
        -0.08032017201185226, 
        0.04514426738023758, 
        0.03830450400710106, 
        0.03521231934428215, 
        -0.03055250644683838, 
        -0.060537803918123245, 
        -0.376025527715683, 
        -0.05659884959459305, 
        0.0335162878036499, 
        -0.10822752118110657, 
        -0.24004794657230377, 
        -0.027571577578783035, 
        -0.020825300365686417, 
        -0.0648510679602623, 
        -0.0584370493888855, 
        -0.07445509731769562, 
        0.10032559931278229, 
        -0.0857534110546112, 
        0.03671826049685478, 
        -0.05385535582900047, 
        -0.07995347678661346, 
        -0.003901622723788023, 
        -0.22271116077899933, 
        0.06712395697832108, 
        -0.004823033697903156, 
        0.004538730718195438, 
        0.014804561622440815, 
        0.05317319929599762, 
        -0.06587827950716019, 
        0.0816042423248291, 
        0.03436664491891861, 
        0.0675555095076561, 
        0.08408483117818832, 
        -0.0029694787226617336, 
        -0.0016017230227589607, 
        -0.021266473457217216, 
        -0.022496484220027924, 
        -0.08797556161880493, 
        -0.0026921406388282776, 
        0.016281837597489357, 
        -0.039480917155742645, 
        0.29426077008247375, 
        -0.08967594057321548, 
        0.010217877104878426, 
        0.08197343349456787, 
        -0.04417906329035759, 
        -0.019641010090708733, 
        -0.039112821221351624, 
        0.03197137266397476, 
        0.0045929159969091415, 
        0.13571564853191376, 
        -0.029774995520710945, 
        -0.18333947658538818, 
        -0.01700921356678009, 
        0.07510699331760406, 
        -0.05837644264101982, 
        -0.09512778371572495, 
        0.014285562559962273, 
        -0.021891538053750992, 
        -0.025229472666978836, 
        0.011843910440802574, 
        0.03921172767877579, 
        0.02689865045249462, 
        0.048422712832689285, 
        0.011618428863584995, 
        -0.10411173850297928, 
        -0.21241609752178192, 
        -0.013229703530669212, 
        -0.016192706301808357, 
        -0.11963807791471481, 
        -0.11497074365615845, 
        -0.14682777225971222, 
        -0.11138089746236801, 
        -0.013784634880721569, 
        -0.052292630076408386, 
        -0.048049695789813995, 
        -0.028418423607945442, 
        0.09759068489074707, 
        0.07265590131282806, 
        -0.021383104845881462, 
        0.07159660011529922, 
        0.023335842415690422, 
        -0.11962027847766876, 
        -0.042098503559827805, 
        0.03130461275577545, 
        -0.10252606868743896, 
        -0.0062484415248036385, 
        -0.03288707509636879, 
        0.09314354509115219, 
        -0.040872834622859955, 
        0.03457247465848923, 
        0.06193067878484726, 
        -0.012281461618840694, 
        -0.0686873197555542, 
        0.002324524335563183, 
        0.03464571759104729, 
        -0.19865195453166962, 
        0.004453911911696196, 
        0.05892733484506607, 
        -0.09071486443281174, 
        -0.09188296645879745, 
        -0.054250217974185944, 
        -0.0537743978202343, 
        -0.06855083256959915, 
        -0.003479970619082451, 
        0.004202574025839567, 
        0.0730845108628273, 
        0.12872321903705597, 
        -0.061294153332710266, 
        0.05554791912436485, 
        0.02200685255229473, 
        0.03389982506632805, 
        -0.08060184866189957, 
        0.03619355335831642, 
        0.09413990378379822, 
        0.07484075427055359, 
        0.01101005356758833, 
        -0.0862806960940361, 
        -0.03344785049557686, 
        0.03910660371184349, 
        0.06718500703573227, 
        0.07449541240930557, 
        -0.020188428461551666, 
        -0.013646403327584267, 
        0.02373845875263214, 
        -0.08861017972230911, 
        -5.749944466515444e-05, 
        0.024429233744740486, 
        -0.008219344541430473, 
        -0.03965093940496445, 
        -0.025954877957701683, 
        -0.1472627967596054, 
        0.0407908633351326, 
        -0.07390845566987991, 
        0.0007172598852775991, 
        -0.009093491360545158, 
        0.012767321430146694, 
        -0.03765342757105827, 
        -0.01742326281964779, 
        -0.019228726625442505, 
        0.004035132937133312, 
        -0.03898308426141739, 
        -0.05948146805167198, 
        -0.005933080799877644, 
        -0.02283693477511406, 
        -0.0664559081196785, 
        -0.13027027249336243, 
        -0.01036401279270649, 
        0.07839419692754745, 
        0.05475476011633873, 
        0.04385729134082794, 
        -0.023077601566910744, 
        -0.03926529362797737, 
        -0.05218616873025894, 
        0.08462977409362793, 
        -0.031079158186912537, 
        -0.255719393491745, 
        -0.0818471685051918, 
        0.052356064319610596, 
        0.04413171857595444, 
        -0.1440587192773819, 
        -0.028142370283603668, 
        -0.0655309334397316, 
        0.04675956070423126, 
        -0.02604982815682888, 
        0.03664998337626457, 
        -0.042263660579919815, 
        0.11405151337385178, 
        0.04582031071186066, 
        0.08988770097494125, 
        -0.034092407673597336, 
        0.04434606432914734, 
        -0.103800468146801, 
        0.23710890114307404, 
        -0.009068762883543968, 
        -0.010326424613595009, 
        0.05940597876906395, 
        -0.02082982286810875, 
        0.051615159958601, 
        0.021639913320541382, 
        -0.006546797230839729, 
        0.02278737910091877, 
        0.012675060890614986, 
        0.06386925280094147, 
        -0.04197581484913826, 
        -0.03146272525191307, 
        -0.23524759709835052, 
        -0.1729552298784256, 
        0.07247142493724823, 
        -0.028020797297358513, 
        -0.24951185286045074, 
        -0.05299576744437218, 
        0.029560372233390808, 
        -0.003415127983316779, 
        0.0007928175618872046, 
        0.09306088089942932, 
        -0.024197660386562347, 
        -0.03737538307905197, 
        -0.05838858708739281, 
        0.014822175726294518, 
        0.01969769410789013, 
        0.004074971657246351, 
        -0.4600996673107147, 
        0.08410517871379852, 
        0.044138818979263306, 
        0.03529014438390732, 
        -0.034488823264837265, 
        -0.006259781774133444, 
        0.024135177955031395, 
        -0.013645699247717857, 
        -0.048885561525821686, 
        0.005540857557207346, 
        -0.019559508189558983, 
        0.03527215123176575, 
        0.053250811994075775, 
        -0.37487465143203735, 
        -0.026035724207758904, 
        -0.028878066688776016, 
        -0.003505885135382414
      ]
    }, 
    {
      "activation": "rectified", 
      "architecture": "dense", 
      "bias": [
        -0.0595027431845665, 
        -0.07754937559366226, 
        -0.03714608773589134, 
        -0.3874053955078125, 
        -0.1263580173254013, 
        -0.24324779212474823, 
        -0.14196033775806427, 
        -0.04088689386844635, 
        -0.05732756853103638, 
        -0.18550273776054382, 
        -0.009835915639996529, 
        -0.28519707918167114, 
        -0.1184503361582756, 
        -0.10768953710794449, 
        -0.03057430125772953, 
        -0.06809022277593613, 
        -0.26891037821769714, 
        -0.15953800082206726, 
        -0.1118958592414856, 
        -0.24167513847351074, 
        -0.054171185940504074, 
        -0.031762246042490005, 
        -0.0017163389129564166, 
        0.10243935137987137, 
        0.14984917640686035, 
        -0.16740596294403076, 
        -0.1117016151547432, 
        -0.07823780179023743, 
        -0.03349745273590088, 
        -0.07286716252565384
      ], 
      "weights": [
        0.00860679429024458, 
        0.04905090853571892, 
        -0.018064744770526886, 
        -0.004374964628368616, 
        -0.05688754841685295, 
        0.0519774965941906, 
        -0.04289134219288826, 
        -0.013287519104778767, 
        -0.0949353501200676, 
        -0.06040485203266144, 
        0.05090412497520447, 
        -0.021884208545088768, 
        -0.09610359370708466, 
        -0.02484147623181343, 
        -0.005064626690000296, 
        0.0006104797939769924, 
        -0.02366321161389351, 
        -0.07771386206150055, 
        0.0036302385851740837, 
        0.016414940357208252, 
        -0.09792941063642502, 
        -0.06750797480344772, 
        -0.018913911655545235, 
        0.007711037993431091, 
        -0.03776099905371666, 
        -0.029495222494006157, 
        0.03194008022546768, 
        0.0827239379286766, 
        0.06658811867237091, 
        0.07069046795368195, 
        0.24721506237983704, 
        0.07701627910137177, 
        0.0570717453956604, 
        0.010912067256867886, 
        -0.0039075817912817, 
        -0.0036467418540269136, 
        -0.11922387033700943, 
        -0.05531112104654312, 
        -0.005366503726691008, 
        -0.07909835129976273, 
        -0.1026676744222641, 
        0.11714952439069748, 
        0.04268800467252731, 
        0.12422969192266464, 
        0.041377175599336624, 
        0.0303731057792902, 
        0.10729104280471802, 
        0.004709387198090553, 
        0.09569085389375687, 
        -0.027488363906741142, 
        -0.1937609314918518, 
        0.005708564072847366, 
        0.09263047575950623, 
        0.04405659809708595, 
        -0.07226838916540146, 
        -0.0014654523693025112, 
        -0.006886917632073164, 
        -0.0774802714586258, 
        0.13593730330467224, 
        0.047725528478622437, 
        -0.051654376089572906, 
        -0.08554569631814957, 
        -0.04648713394999504, 
        -0.06195146590471268, 
        -0.03705500438809395, 
        -0.01848391443490982, 
        0.008919228799641132, 
        -0.04223211109638214, 
        -0.11762041598558426, 
        -0.07440955191850662, 
        -0.16312235593795776, 
        -0.019573574885725975, 
        -0.05385131016373634, 
        0.03602570667862892, 
        0.07856856286525726, 
        0.03263148292899132, 
        -0.07948389649391174, 
        -0.012264302931725979, 
        -0.1082649976015091, 
        0.01648905500769615, 
        -0.05969851091504097, 
        -0.04059241712093353, 
        0.0894772857427597, 
        -0.03143584355711937, 
        -0.0329863615334034, 
        0.05013471469283104, 
        0.03387819975614548, 
        0.04568493366241455, 
        -0.04209868237376213, 
        -0.03804585337638855, 
        -0.0188932903110981, 
        -0.07134613394737244, 
        -0.11692015081644058, 
        0.055360130965709686, 
        -0.04582402855157852, 
        0.03269409015774727, 
        -0.06693047285079956, 
        -0.3699743151664734, 
        -0.08681227266788483, 
        -0.019846783950924873, 
        -0.02111247181892395, 
        -0.037097617983818054, 
        0.14466027915477753, 
        0.05875452980399132, 
        0.021213404834270477, 
        0.02625204622745514, 
        0.0028470547404140234, 
        0.028699398040771484, 
        0.0071729389019310474, 
        -0.025342367589473724, 
        -0.032375261187553406, 
        0.06624402850866318, 
        0.08407986909151077, 
        0.052722033113241196, 
        -0.11736568808555603, 
        -0.005185577552765608, 
        0.03723949193954468, 
        -0.09722080826759338, 
        -0.05701153725385666, 
        -0.07041715830564499, 
        0.08263928443193436, 
        -0.11602037400007248, 
        0.04557007551193237, 
        0.054431214928627014, 
        0.08288523554801941, 
        -0.10527431219816208, 
        0.02768898569047451, 
        -0.06467229872941971, 
        -0.035742077976465225, 
        0.038665272295475006, 
        -0.17525556683540344, 
        -0.011605116538703442, 
        -0.13073714077472687, 
        -0.033030055463314056, 
        0.07816076278686523, 
        -0.03386877477169037, 
        -0.04283036291599274, 
        -0.15415355563163757, 
        0.011974763125181198, 
        -0.032463084906339645, 
        -0.03615451604127884, 
        0.027107544243335724, 
        -0.10390912741422653, 
        -0.05608218535780907, 
        -0.13698171079158783, 
        -0.00023264977789949626, 
        -0.048040661960840225, 
        -0.011088886298239231, 
        0.050115279853343964, 
        0.002701652469113469, 
        -0.07784776389598846, 
        -0.07090239226818085, 
        -0.12933029234409332, 
        0.05623212456703186, 
        -0.1100219264626503, 
        -0.12060743570327759, 
        -0.021422769874334335, 
        -0.10237777233123779, 
        -0.1106368899345398, 
        -0.08794309198856354, 
        -0.025897126644849777, 
        -0.035277314484119415, 
        -0.0779847800731659, 
        0.02787601388990879, 
        -0.01858230121433735, 
        0.020679395645856857, 
        0.07829862087965012, 
        -0.12037792801856995, 
        -0.01466713659465313, 
        -0.13238857686519623, 
        -0.04142357409000397, 
        -0.011594932526350021, 
        0.04569467902183533, 
        -0.008860165253281593, 
        -0.024443170055747032, 
        0.03515465185046196, 
        0.05943790450692177, 
        -0.04088445007801056, 
        -0.0032345077488571405, 
        0.05955100432038307, 
        0.03627563640475273, 
        -0.03226761519908905, 
        0.027382735162973404, 
        0.012649659998714924, 
        -0.056129340082407, 
        -0.0025427185464650393, 
        0.12420635670423508, 
        -0.03729744628071785, 
        -0.05038316547870636, 
        -0.007434339262545109, 
        -0.0765882059931755, 
        -0.03380066528916359, 
        -0.09024310111999512, 
        -0.04497917741537094, 
        0.061272602528333664, 
        -0.025459323078393936, 
        0.14051228761672974, 
        -0.03632175549864769, 
        0.033567797392606735, 
        -0.033734507858753204, 
        -0.12749963998794556, 
        0.021749624982476234, 
        0.010155062191188335, 
        0.04023116081953049, 
        -0.19692347943782806, 
        -0.06051046773791313, 
        0.006062591448426247, 
        -0.015967313200235367, 
        0.07311340421438217, 
        0.010386106558144093, 
        -0.04122170805931091, 
        0.02886865846812725, 
        -0.048821743577718735, 
        -0.0022779323626309633, 
        -0.026101354509592056, 
        -0.12744306027889252, 
        -0.03308875858783722, 
        -0.3321387469768524, 
        -0.014227046631276608, 
        0.00473430473357439, 
        -0.12828479707241058, 
        0.1579722762107849, 
        -0.05145057663321495, 
        -0.05134729668498039, 
        -0.002888425486162305, 
        0.03228067606687546, 
        0.0814426988363266, 
        -0.743444561958313, 
        0.08300940692424774, 
        -0.0518714115023613, 
        -0.025119317695498466, 
        0.07854937016963959, 
        0.051343634724617004, 
        0.07529017329216003, 
        0.01729445718228817, 
        0.027915701270103455, 
        0.16703374683856964, 
        -0.015709536150097847, 
        0.12864133715629578, 
        0.0027744960971176624, 
        0.01696888729929924, 
        -0.06518320739269257, 
        0.0884724110364914, 
        -0.01259935088455677, 
        -0.029723037034273148, 
        0.0029625967144966125, 
        0.018443485721945763, 
        -0.09635227173566818, 
        -0.03287672623991966, 
        -0.08185824751853943, 
        0.005689166020601988, 
        0.03922199085354805, 
        -0.025640666484832764, 
        0.04943261668086052, 
        -0.053899746388196945, 
        0.08378128707408905, 
        0.04641992971301079, 
        -0.03719669207930565, 
        -0.049549587070941925, 
        -0.06797222793102264, 
        -0.03786156699061394, 
        0.02972070313990116, 
        -0.08658626675605774, 
        -0.022865844890475273, 
        -0.018669525161385536, 
        -0.0884188711643219, 
        -0.03821438178420067, 
        -0.15139977633953094, 
        -0.027148384600877762, 
        0.013350049033761024, 
        -0.023130176588892937, 
        0.030436338856816292, 
        -0.08216151595115662, 
        0.01393398828804493, 
        -0.039067573845386505, 
        0.09185492247343063, 
        -0.11360812187194824, 
        -0.16292476654052734, 
        -0.01359761692583561, 
        -0.04786214604973793, 
        -0.00581313157454133, 
        0.030285222455859184, 
        -0.025767583400011063, 
        0.0219955425709486, 
        0.08082844316959381, 
        0.09645817428827286, 
        0.09186914563179016, 
        -0.05993329733610153, 
        -0.06708650290966034, 
        0.04635141044855118, 
        -0.012126147747039795, 
        0.0967598408460617, 
        0.02688952535390854, 
        -0.07485529780387878, 
        -0.0003995050210505724, 
        -0.04024926945567131, 
        0.0459468699991703, 
        -0.04217296838760376, 
        0.04365650936961174, 
        0.07857704162597656, 
        -0.038376808166503906, 
        0.02909919247031212, 
        0.010132553987205029, 
        -0.022227659821510315, 
        0.05952944606542587, 
        -0.06573370099067688, 
        -0.08379846811294556, 
        -0.1582544893026352, 
        -0.08984707295894623, 
        -0.019912114366889, 
        -0.035287998616695404, 
        -0.160231351852417, 
        -0.05195491760969162, 
        -0.01574488915503025, 
        0.0878092348575592, 
        0.03336484357714653, 
        -0.10108789801597595, 
        0.05940131098031998, 
        -0.12063740938901901, 
        -0.0007461035274900496, 
        -0.1231798380613327, 
        -0.02374013140797615, 
        -0.06058170646429062, 
        -0.04926987737417221, 
        0.19731995463371277, 
        -0.013834526762366295, 
        0.06921781599521637, 
        0.010518725961446762, 
        -0.018250921741127968, 
        -0.09025012701749802, 
        -0.018437040969729424, 
        0.035353947430849075, 
        -0.16260331869125366, 
        0.053590405732393265, 
        -0.07676588743925095, 
        -0.08917072415351868, 
        -0.393107533454895, 
        -0.02340400405228138, 
        -0.030657468363642693, 
        -0.26929885149002075, 
        -0.011539239436388016, 
        -0.08083368092775345, 
        -0.004341581836342812, 
        0.003236320335417986, 
        -0.0014630076475441456, 
        0.012340307235717773, 
        0.03476553037762642, 
        -0.0195151437073946, 
        0.057678163051605225, 
        -0.23520521819591522, 
        -1.2460002899169922, 
        -0.001883649150840938, 
        0.013695040717720985, 
        0.01745934970676899, 
        -0.17246238887310028, 
        -0.009206279180943966, 
        -0.046137306839227676, 
        0.044879887253046036, 
        0.021859144791960716, 
        -0.7639928460121155, 
        0.014078945852816105, 
        0.05983521789312363, 
        -0.04006634280085564, 
        0.021903272718191147, 
        0.10582798719406128, 
        0.06726252287626266, 
        -0.3655335307121277, 
        -0.022612519562244415, 
        0.04191578924655914, 
        -0.014838245697319508, 
        -0.09142229706048965, 
        0.02257089503109455, 
        -0.11150655150413513, 
        0.00026590898050926626, 
        0.04025888815522194, 
        0.11243510246276855, 
        0.01806046813726425, 
        -0.08448367565870285, 
        -0.05281746760010719, 
        -0.012661529704928398, 
        -0.2003946453332901, 
        -0.01699356734752655, 
        -0.020814159885048866, 
        0.03273416683077812, 
        -0.10051067918539047, 
        0.05216026306152344, 
        -0.007372669875621796, 
        0.008978406898677349, 
        0.096215158700943, 
        -0.6024490594863892, 
        0.021376583725214005, 
        0.007252775598317385, 
        0.06604484468698502, 
        -0.10203017294406891, 
        0.06821098923683167, 
        -0.009796750731766224, 
        -0.082862988114357, 
        -0.07850615680217743, 
        -0.11208006739616394, 
        0.05981137976050377, 
        -0.03957083821296692, 
        -0.05597860366106033, 
        -0.048217546194791794, 
        -0.10125359147787094, 
        0.035034969449043274, 
        -0.12126613408327103, 
        0.03683716803789139, 
        -0.03492625802755356, 
        -0.01418646052479744, 
        0.06572374701499939, 
        -0.12832513451576233, 
        0.037339676171541214, 
        0.026400165632367134, 
        0.06092577427625656, 
        -0.08730867505073547, 
        -0.1687304824590683, 
        -0.08876372128725052, 
        -0.053049154579639435, 
        0.09064216166734695, 
        -0.08614891767501831, 
        -0.044379789382219315, 
        -0.027469173073768616, 
        -0.0104436120018363, 
        0.02023225836455822, 
        -0.05763770267367363, 
        -0.04911943897604942, 
        -0.06221193075180054, 
        -0.08600187301635742, 
        -0.055254604667425156, 
        0.026351839303970337, 
        -0.016693292185664177, 
        0.025150969624519348, 
        -0.003849850734695792, 
        -0.05575729161500931, 
        -0.15259389579296112, 
        -0.09991943091154099, 
        0.04637904092669487, 
        0.0048102280125021935, 
        -0.02041635476052761, 
        -0.001511513371951878, 
        -0.07218474894762039, 
        0.0008096120436675847, 
        0.020614732056856155, 
        -0.0368775799870491, 
        -0.02932225726544857, 
        -0.049273356795310974, 
        0.01577017456293106, 
        -0.05790300294756889, 
        -0.01225300319492817, 
        -0.012963532470166683, 
        0.015590510331094265, 
        0.054337259382009506, 
        -0.14780987799167633, 
        0.01160532608628273, 
        0.054477401077747345, 
        0.010364562273025513, 
        -0.08245286345481873, 
        -0.006092757917940617, 
        0.01909118890762329, 
        -0.044685956090688705, 
        -0.03334836661815643, 
        0.033761896193027496, 
        -0.05149263143539429, 
        -0.10213819146156311, 
        0.013473862782120705, 
        0.04802139475941658, 
        0.010873404331505299, 
        0.011353607289493084, 
        -0.02177836000919342, 
        -0.03793438524007797, 
        -0.01579144224524498, 
        -0.006875809282064438, 
        0.012564927339553833, 
        -0.03385411947965622, 
        -0.07444468140602112, 
        0.029177552089095116, 
        -0.06060843542218208, 
        0.005876714829355478, 
        0.0602697916328907, 
        -0.022869816049933434, 
        -0.014644037000834942, 
        0.09950041025876999, 
        -0.06924579292535782, 
        -0.003751707961782813, 
        -0.06918641179800034, 
        -0.15746034681797028, 
        -0.028742875903844833, 
        -0.22126978635787964, 
        -0.0012411654461175203, 
        -0.0972982794046402, 
        -0.10275916755199432, 
        -0.021738339215517044, 
        -0.0799553319811821, 
        -0.03931943327188492, 
        -0.0018352802144363523, 
        0.05240179970860481, 
        0.007571725640445948, 
        -0.031681422144174576, 
        0.011853504925966263, 
        0.014340671710669994, 
        -0.014793158508837223, 
        0.007783569861203432, 
        0.07873022556304932, 
        -0.06397563964128494, 
        -0.02983931079506874, 
        0.022090129554271698, 
        0.006323747802525759, 
        -0.029222020879387856, 
        0.040368154644966125, 
        -0.03656632453203201, 
        0.05226342752575874, 
        -0.025355063378810883, 
        0.04505001753568649, 
        -0.04130813106894493, 
        -0.010943446308374405, 
        -0.019149232655763626, 
        -0.0740317851305008, 
        -0.038272395730018616, 
        -0.10421092808246613, 
        -0.04240388050675392, 
        -0.04848293587565422, 
        -0.004320836625993252, 
        -0.12562087178230286, 
        0.09092006832361221, 
        -0.014414815232157707, 
        0.04807339236140251, 
        -0.0350722037255764, 
        -0.1271411031484604, 
        -0.00831853598356247, 
        0.05877998471260071, 
        -0.025974217802286148, 
        0.041400205343961716, 
        -0.06323782354593277, 
        -0.006373332813382149, 
        -0.03624355420470238, 
        -0.0875619649887085, 
        -0.0281181950122118, 
        -0.029901305213570595, 
        -0.032189466059207916, 
        -0.06357194483280182, 
        -0.023344065994024277, 
        -0.0779343768954277, 
        0.030129102990031242, 
        0.042446888983249664, 
        -0.08889918029308319, 
        0.032078467309474945, 
        -0.10815295577049255, 
        -0.06795553863048553, 
        -0.08990504592657089, 
        -0.07719854265451431, 
        0.0335354283452034, 
        -0.13275423645973206, 
        -0.10943122953176498, 
        -0.052967704832553864, 
        0.007609229069203138, 
        0.0687735304236412, 
        0.031841594725847244, 
        -0.08589982241392136, 
        0.0014710620744153857, 
        -0.0316762737929821, 
        -0.031353939324617386, 
        -0.008011391386389732, 
        -0.02606787160038948, 
        -0.05022736266255379, 
        -0.08902230113744736, 
        0.01265459693968296, 
        0.05042663961648941, 
        -0.000979574047960341, 
        -0.004534022882580757, 
        -0.08496885001659393, 
        0.026795396581292152, 
        1.5433633961947635e-05, 
        -0.26464056968688965, 
        -0.059005413204431534, 
        -0.01677071861922741, 
        -0.005225723143666983, 
        -0.1681140661239624, 
        -0.305903822183609, 
        0.010053498670458794, 
        0.0018494956893846393, 
        -0.21269209682941437, 
        0.05712747573852539, 
        -0.09020280092954636, 
        -0.08175592869520187, 
        0.04365542531013489, 
        0.01276053674519062, 
        0.0750054270029068, 
        -0.11918777227401733, 
        0.01991664245724678, 
        -0.08659808337688446, 
        -0.012370757758617401, 
        0.06378199905157089, 
        0.013061963021755219, 
        -0.024142581969499588, 
        0.03815015032887459, 
        0.001599462702870369, 
        -0.002951759612187743, 
        0.07680252194404602, 
        0.07296156883239746, 
        -0.088804230093956, 
        -0.02084660902619362, 
        0.07030801475048065, 
        0.01200009137392044, 
        -0.009694648906588554, 
        -0.01779180020093918, 
        -0.025646617636084557, 
        -0.0338248535990715, 
        -0.02810133621096611, 
        -0.08397715538740158, 
        -0.09949065744876862, 
        -0.06111923232674599, 
        -0.04275844618678093, 
        -0.08456254750490189, 
        -0.008675324730575085, 
        -0.04363074526190758, 
        0.11688270419836044, 
        -0.01855783723294735, 
        -0.05579473450779915, 
        0.033594466745853424, 
        0.023791063576936722, 
        -0.00947603303939104, 
        -0.0522107370197773, 
        -0.06173187866806984, 
        0.036578238010406494, 
        -0.01753103733062744, 
        0.021319720894098282, 
        -0.04146788641810417, 
        -0.08192119002342224, 
        -0.04769883304834366, 
        -0.03146179020404816, 
        -0.012302237562835217, 
        -0.01758844032883644, 
        -0.059940408915281296, 
        -0.0008181861485354602, 
        0.060185499489307404, 
        -0.09773211926221848, 
        -0.05562335252761841, 
        -0.039388883858919144, 
        -0.04163394123315811, 
        -0.05486312508583069, 
        0.013669013977050781, 
        0.02186080813407898, 
        -0.07327204197645187, 
        0.037899039685726166, 
        -0.018759487196803093, 
        0.0453842431306839, 
        -0.003039631526917219, 
        -0.09803801029920578, 
        0.04884526506066322, 
        -0.032277729362249374, 
        -0.06657945364713669, 
        -0.049561504274606705, 
        0.012874925509095192, 
        0.06652440875768661, 
        -0.020375093445181847, 
        -0.078939288854599, 
        -0.005535980220884085, 
        -0.07073133438825607, 
        0.01705034263432026, 
        0.010375273413956165, 
        0.01888146810233593, 
        0.08358610421419144, 
        0.03617739677429199, 
        0.08394574373960495, 
        -0.010470530949532986, 
        0.03431042656302452, 
        -0.04852636903524399, 
        -0.14741623401641846, 
        -0.10318043828010559, 
        -0.07211147993803024, 
        -0.0075265211053192616, 
        0.17869214713573456, 
        -0.0452093668282032, 
        -0.036335475742816925, 
        0.014077800326049328, 
        -0.07683130353689194, 
        0.07607405632734299, 
        -0.04570566862821579, 
        -0.11362610012292862, 
        -0.05654824525117874, 
        -0.0650954395532608, 
        0.05865359306335449, 
        0.016531385481357574, 
        0.01968160644173622, 
        0.0022862202022224665, 
        -0.1204940527677536, 
        -0.014125237241387367, 
        -0.09424931555986404, 
        0.15499262511730194, 
        -0.03600287064909935, 
        0.08231102675199509, 
        -0.07684224843978882, 
        -0.9848201274871826, 
        -0.017516255378723145, 
        -0.0015428949845954776, 
        -0.010636113584041595, 
        0.025272339582443237, 
        -4.8735175132751465, 
        0.030554449185729027, 
        0.011259154416620731, 
        -0.15921305119991302, 
        -0.09444288164377213, 
        -0.000940040044952184, 
        -0.020236298441886902, 
        0.052755992859601974, 
        -0.07635994255542755, 
        0.021202921867370605, 
        -0.1866372972726822, 
        0.07505398988723755, 
        -0.08371791988611221, 
        0.22777511179447174, 
        0.009555981494486332, 
        0.02353670820593834, 
        0.012469332665205002, 
        -0.19008365273475647, 
        0.013665489852428436, 
        0.009083857759833336, 
        -0.062498968094587326, 
        0.06508085876703262, 
        0.0037425539921969175, 
        -0.08643166720867157, 
        -0.03689306229352951, 
        0.020944714546203613, 
        0.0036137120332568884, 
