{
  "defaults": {}, 
  "inputs": [
    {
      "name": "met_met", 
      "offset": 0, 
      "scale": 1
    }, 
    {
      "name": "mtw", 
      "offset": 0, 
      "scale": 1
    }, 
    {
      "name": "lepton_pt", 
      "offset": 0, 
      "scale": 1
    }, 
    {
      "name": "lepton_eta", 
      "offset": 0, 
      "scale": 1
    }, 
    {
      "name": "deltaPhi_lep_met", 
      "offset": 0, 
      "scale": 1
    }, 
    {
      "name": "n_jets", 
      "offset": 0, 
      "scale": 1
    }, 
    {
      "name": "deltaPhi_j0_met_phi", 
      "offset": 0, 
      "scale": 1
    }, 
    {
      "name": "deltaPhi_j1_met_phi", 
      "offset": 0, 
      "scale": 1
    }, 
    {
      "name": "deltaPhi_j2_met_phi", 
      "offset": 0, 
      "scale": 1
    }, 
    {
      "name": "deltaPhi_j3_met_phi", 
      "offset": 0, 
      "scale": 1
    }, 
    {
      "name": "jet0_bdisc", 
      "offset": 0, 
      "scale": 1
    }, 
    {
      "name": "jet1_bdisc", 
      "offset": 0, 
      "scale": 1
    }, 
    {
      "name": "jet2_bdisc", 
      "offset": 0, 
      "scale": 1
    }, 
    {
      "name": "jet3_bdisc", 
      "offset": 0, 
      "scale": 1
    }, 
    {
      "name": "jet0_ptrel", 
      "offset": 0, 
      "scale": 1
    }, 
    {
      "name": "jet1_ptrel", 
      "offset": 0, 
      "scale": 1
    }, 
    {
      "name": "jet2_ptrel", 
      "offset": 0, 
      "scale": 1
    }, 
    {
      "name": "jet3_ptrel", 
      "offset": 0, 
      "scale": 1
    }
  ], 
  "layers": [
    {
      "activation": "rectified", 
      "architecture": "dense", 
      "bias": [
        -0.12183009088039398, 
        -0.032985277473926544, 
        0.0, 
        -0.04303735867142677, 
        -0.03125578910112381, 
        -0.06833060830831528, 
        -0.10099409520626068, 
        -0.0179427582770586, 
        -0.03175322338938713, 
        -1.1712123155593872, 
        0.950607419013977, 
        3.7034378051757812, 
        -0.044616393744945526, 
        2.903071641921997, 
        -1.895406723022461, 
        -0.09558116644620895, 
        -0.11251169443130493, 
        -0.03994118049740791, 
        -0.020429108291864395, 
        -0.01009129174053669, 
        -0.4708389341831207, 
        -0.02106410823762417, 
        -0.09438549727201462, 
        -0.6139153242111206, 
        1.9626597166061401, 
        -0.043581489473581314, 
        -3.206932544708252, 
        -0.030695734545588493, 
        -0.021454431116580963, 
        0.9177179336547852, 
        -0.029594216495752335, 
        -0.03175106272101402, 
        -0.09814191609621048, 
        -0.043282877653837204, 
        0.0, 
        -0.12239069491624832, 
        -0.02604340761899948, 
        -0.03645263984799385, 
        -0.05910789966583252, 
        0.06507938355207443
      ], 
      "weights": [
        -0.05610490217804909, 
        -0.06568168103694916, 
        -0.043837886303663254, 
        1.8303221464157104, 
        -0.18068213760852814, 
        -0.048816125839948654, 
        -0.05177517607808113, 
        0.004842509049922228, 
        0.030619805678725243, 
        -0.0943562462925911, 
        -0.07048217952251434, 
        -0.04121054336428642, 
        -0.0602654293179512, 
        0.1085614487528801, 
        -0.17205755412578583, 
        -0.1536867469549179, 
        -0.13223600387573242, 
        -0.10477916896343231, 
        -0.017123956233263016, 
        0.04054148122668266, 
        -0.09404511004686356, 
        0.22355970740318298, 
        -0.004142905119806528, 
        -0.12167175114154816, 
        0.033383581787347794, 
        0.025320077314972878, 
        -0.055228445678949356, 
        -0.02870328538119793, 
        0.05417680740356445, 
        0.0067703197710216045, 
        0.0385199598968029, 
        0.0409151054918766, 
        -0.07617209851741791, 
        0.04281822592020035, 
        -0.03751044347882271, 
        -0.06959635019302368, 
        -0.060610007494688034, 
        -0.03880682587623596, 
        -0.014115064404904842, 
        0.1043238639831543, 
        -0.07397328317165375, 
        -0.09630531072616577, 
        0.017439251765608788, 
        -0.018790295347571373, 
        -0.016519350931048393, 
        -0.0004499515052884817, 
        -0.047842659056186676, 
        -0.11786878108978271, 
        0.038932915776968, 
        0.0196437519043684, 
        0.10894747078418732, 
        -0.00020489619055297226, 
        0.002462616888806224, 
        0.022481102496385574, 
        -0.01898914761841297, 
        -0.1310943365097046, 
        -0.003541672369465232, 
        0.3890586495399475, 
        -0.10147601366043091, 
        -0.11498533934354782, 
        -0.0939856767654419, 
        -0.15670989453792572, 
        -0.009288749657571316, 
        -0.06248337775468826, 
        -0.06885457038879395, 
        0.06441490352153778, 
        0.029049871489405632, 
        0.07759883254766464, 
        -0.008278422057628632, 
        -0.018467020243406296, 
        -0.013972028158605099, 
        0.04565643146634102, 
        -0.0010340798180550337, 
        -0.09509532898664474, 
        -0.13249452412128448, 
        0.11702156811952591, 
        0.08292786031961441, 
        0.009162439964711666, 
        -0.03843865171074867, 
        -0.08796466886997223, 
        -0.09436585009098053, 
        -0.09885093569755554, 
        0.06856226176023483, 
        -0.016179384663701057, 
        0.04123023524880409, 
        -0.0054002441465854645, 
        -0.02823098562657833, 
        -0.0593453012406826, 
        -0.07278745621442795, 
        0.010610505938529968, 
        -0.06450693309307098, 
        -0.12018121778964996, 
        -0.014669814147055149, 
        -0.6907814741134644, 
        0.014004257507622242, 
        -0.07487931847572327, 
        -0.0893775224685669, 
        -0.014584637247025967, 
        -0.04905181750655174, 
        -0.12010923773050308, 
        -0.13081105053424835, 
        0.006640887353569269, 
        -0.11820194870233536, 
        0.10498561710119247, 
        -0.11762241274118423, 
        -0.03603167459368706, 
        -0.10631682723760605, 
        -0.016171175986528397, 
        -0.12557825446128845, 
        -0.1454814374446869, 
        -0.09147496521472931, 
        2.9259486198425293, 
        -0.0767914429306984, 
        0.05953831225633621, 
        -0.11051525175571442, 
        0.01909642666578293, 
        -0.0223919078707695, 
        -0.09417693316936493, 
        0.007582411170005798, 
        -0.08012832701206207, 
        0.274284690618515, 
        0.263406366109848, 
        0.0333833210170269, 
        0.128537118434906, 
        0.24063339829444885, 
        0.060463931411504745, 
        -0.09092537313699722, 
        0.02591606415808201, 
        -0.02101420797407627, 
        -0.13518239557743073, 
        -0.003685160307213664, 
        -0.05536762252449989, 
        0.007910865359008312, 
        -0.10443634539842606, 
        -0.06506749987602234, 
        -0.0816132053732872, 
        -0.0034315253142267466, 
        -0.029691271483898163, 
        0.004044411238282919, 
        0.014770884066820145, 
        -0.02917861007153988, 
        0.04119647294282913, 
        -0.01691090129315853, 
        0.008195320144295692, 
        -0.06455305218696594, 
        -0.07280364632606506, 
        -0.021836383268237114, 
        -0.06030373275279999, 
        -0.03059394657611847, 
        -0.11079864203929901, 
        -0.08685921877622604, 
        -0.07682093977928162, 
        -0.0837784856557846, 
        -0.059160348027944565, 
        -0.04085501283407211, 
        -0.016705725342035294, 
        -0.0022533456794917583, 
        0.033757902681827545, 
        -0.04322723299264908, 
        -0.016851618885993958, 
        0.030755743384361267, 
        0.09646152704954147, 
        -0.10130869597196579, 
        0.800064206123352, 
        -0.4740266799926758, 
        0.20812629163265228, 
        5.536591529846191, 
        -1.9682093858718872, 
        -0.6980767250061035, 
        -1.4650578498840332, 
        -0.22509805858135223, 
        -1.3970388174057007, 
        -1.1093111038208008, 
        -1.74281644821167, 
        -2.701174736022949, 
        -2.686922550201416, 
        2.243974208831787, 
        3.638000249862671, 
        -1.3898013830184937, 
        -5.801872253417969, 
        0.01878403313457966, 
        0.37906429171562195, 
        0.4106261134147644, 
        -29.062761306762695, 
        0.7567007541656494, 
        -0.2319214642047882, 
        0.5646328926086426, 
        1.1289085149765015, 
        0.0874175876379013, 
        0.16468337178230286, 
        -0.2040526121854782, 
        -1.4039008617401123, 
        -0.973621129989624, 
        -0.1649516373872757, 
        -1.8373796939849854, 
        -2.800708770751953, 
        -2.7154672145843506, 
        -0.798781156539917, 
        -0.3576522767543793, 
        -0.31165727972984314, 
        0.29307276010513306, 
        -14.387479782104492, 
        -3.405143976211548, 
        3.5170652866363525, 
        1.977839708328247, 
        -3.4443681240081787, 
        -0.5848692655563354, 
        1.3051964044570923, 
        2.4094605445861816, 
        0.21198894083499908, 
        1.0561407804489136, 
        0.41276049613952637, 
        -2.739398956298828, 
        -5.337417125701904, 
        -0.38369467854499817, 
        -0.28773894906044006, 
        -0.013266992755234241, 
        -0.0591934435069561, 
        0.005404994823038578, 
        0.18667186796665192, 
        -0.09298380464315414, 
        -0.05905819684267044, 
        -0.040531378239393234, 
        -0.1308753341436386, 
        -0.012798023410141468, 
        -0.14288641512393951, 
        -0.04709300026297569, 
        -0.0063220420852303505, 
        0.12554967403411865, 
        0.18701313436031342, 
        -0.13061220943927765, 
        -0.04779310151934624, 
        0.0112370066344738, 
        0.0340176559984684, 
        -0.3414248824119568, 
        -0.27338722348213196, 
        0.39840638637542725, 
        13.930864334106445, 
        -4.211372375488281, 
        3.504377841949463, 
        2.126336097717285, 
        -3.3253042697906494, 
        -0.35221409797668457, 
        0.16991767287254333, 
        -0.5802357792854309, 
        1.7064188718795776, 
        0.21782861649990082, 
        -1.5206934213638306, 
        -1.6477627754211426, 
        -5.486095428466797, 
        -3.3150103092193604, 
        -0.41701218485832214, 
        -0.02804788202047348, 
        0.24780182540416718, 
        0.313393235206604, 
        -24.06295394897461, 
        -7.128732204437256, 
        -3.229254961013794, 
        -0.3185751140117645, 
        0.48715582489967346, 
        -0.7246794700622559, 
        -0.9425677061080933, 
        -0.30784356594085693, 
        0.1794838011264801, 
        1.0132617950439453, 
        -0.7702884078025818, 
        -9.079501152038574, 
        -11.613720893859863, 
        -10.059735298156738, 
        -4.133222579956055, 
        -0.07378806918859482, 
        -0.10259439051151276, 
        -0.021606478840112686, 
        1.1209570169448853, 
        -0.11210239678621292, 
        -0.09510216861963272, 
        -0.04187733680009842, 
        -0.12481946498155594, 
        -0.07979966700077057, 
        -0.06269790977239609, 
        -0.13515523076057434, 
        0.00894833356142044, 
        -0.043286073952913284, 
        0.06023763120174408, 
        -0.07070979475975037, 
        -0.14454753696918488, 
        -0.058183301240205765, 
        -0.2527783215045929, 
        -0.15348945558071136, 
        -0.10106536746025085, 
        -0.04228585585951805, 
        2.5221850872039795, 
        -0.20315885543823242, 
        -0.14830556511878967, 
        -0.028839237987995148, 
        -0.23828765749931335, 
        -0.06990208476781845, 
        -0.08575597405433655, 
        0.05043955147266388, 
        0.09668638557195663, 
        0.013430780731141567, 
        0.04523920640349388, 
        -0.19261032342910767, 
        -0.13553090393543243, 
        -0.15494608879089355, 
        -0.2376098334789276, 
        -0.023454666137695312, 
        -0.050950080156326294, 
        -0.059850528836250305, 
        0.7291991710662842, 
        0.002454065717756748, 
        -0.09526863694190979, 
        -0.082520991563797, 
        -0.11518992483615875, 
        0.08601385354995728, 
        -0.013783985748887062, 
        -0.009350918233394623, 
        0.03155703842639923, 
        -0.09752895683050156, 
        -0.043095484375953674, 
        0.01783929020166397, 
        -0.025559311732649803, 
        -0.11006367206573486, 
        -0.13035058975219727, 
        -0.1142948642373085, 
        0.022247137501835823, 
        -0.030522428452968597, 
        -0.05114831402897835, 
        0.052936866879463196, 
        0.0695924386382103, 
        -0.13886669278144836, 
        -0.06630629301071167, 
        0.028396066278219223, 
        0.017789678648114204, 
        0.10447867214679718, 
        -0.140568807721138, 
        -0.04697741940617561, 
        0.06919892132282257, 
        -0.026917552575469017, 
        0.040142737329006195, 
        -0.03512299433350563, 
        0.0882783904671669, 
        -0.02893454022705555, 
        -0.08916465938091278, 
        -0.0003279399243183434, 
        -0.04723091796040535, 
        0.0556260347366333, 
        -0.054490819573402405, 
        -0.05939104035496712, 
        -0.006389820482581854, 
        -0.01502834539860487, 
        -0.015743006020784378, 
        -0.03967466205358505, 
        0.03223707154393196, 
        -0.00818956270813942, 
        0.07175515592098236, 
        0.02990051545202732, 
        0.0411490760743618, 
        0.031762007623910904, 
        0.002743108430877328, 
        0.0002038081584032625, 
        0.3826444745063782, 
        0.4452599585056305, 
        30.314855575561523, 
        1.1711887121200562, 
        -0.199435293674469, 
        0.6960636377334595, 
        0.731053352355957, 
        0.20281846821308136, 
        0.49630099534988403, 
        -1.4810460805892944, 
        -1.3572694063186646, 
        -1.0305157899856567, 
        0.10141313076019287, 
        -0.14347293972969055, 
        -1.011867642402649, 
        -2.1678357124328613, 
        -1.2586419582366943, 
        -0.003885783487930894, 
        -0.025659039616584778, 
        -0.06122298538684845, 
        -1.015925407409668, 
        -0.06165698915719986, 
        -0.04958854988217354, 
        -0.026287753134965897, 
        -0.02371799573302269, 
        0.07356785982847214, 
        -0.04042692482471466, 
        0.003624061355367303, 
        0.007367038633674383, 
        0.024692468345165253, 
        0.1681327521800995, 
        0.029510904103517532, 
        0.03467879071831703, 
        0.06955353170633316, 
        0.14308439195156097, 
        -0.17433367669582367, 
        -0.29147323966026306, 
        -0.0170467346906662, 
        -0.7535253167152405, 
        -0.20215041935443878, 
        -0.16531476378440857, 
        -0.09408953785896301, 
        -0.011214273981750011, 
        -0.14546890556812286, 
        -0.007530796807259321, 
        -0.021881306543946266, 
        -0.1939987689256668, 
        -0.31794166564941406, 
        -0.1616939902305603, 
        -0.24598580598831177, 
        -0.10895108431577682, 
        -0.06461238116025925, 
        -0.3652960956096649, 
        -0.02628590352833271, 
        0.41898849606513977, 
        0.4228570759296417, 
        -26.447832107543945, 
        -1.3265581130981445, 
        -2.1832985877990723, 
        -0.015355288982391357, 
        0.6856662034988403, 
        -0.40300795435905457, 
        -0.7695105671882629, 
        -5.1157941818237305, 
        -1.146146535873413, 
        -0.4852648973464966, 
        0.36774253845214844, 
        -5.581165313720703, 
        -7.061852931976318, 
        -6.549263954162598, 
        -2.541362762451172, 
        0.00929389800876379, 
        0.12766452133655548, 
        0.36296701431274414, 
        -22.7938175201416, 
        1.845985770225525, 
        1.2299878597259521, 
        0.15892334282398224, 
        0.41054409742355347, 
        0.48368337750434875, 
        0.7634839415550232, 
        2.4411988258361816, 
        0.9923397302627563, 
        -1.5914440155029297, 
        -0.04044857621192932, 
        2.9970579147338867, 
        3.9241201877593994, 
        3.4957621097564697, 
        3.3426461219787598, 
        -0.029499972239136696, 
        -0.0009203343070112169, 
        -0.023607583716511726, 
        0.5629249215126038, 
        0.0025917603634297848, 
        0.002594179240986705, 
        0.02873457595705986, 
        -0.053994935005903244, 
        -0.03231973946094513, 
        -0.12980368733406067, 
        -0.12661662697792053, 
        0.039160002022981644, 
        0.04590296000242233, 
        0.023275433108210564, 
        0.04322595149278641, 
        0.0507412888109684, 
        -0.005498706363141537, 
        0.08922260999679565, 
        -0.0296085886657238, 
        0.345150887966156, 
        0.4208354651927948, 
        24.502090454101562, 
        -2.489346504211426, 
        -3.270705223083496, 
        -0.844207763671875, 
        0.8764132857322693, 
        -1.1798264980316162, 
        -1.3194524049758911, 
        -0.6915876269340515, 
        0.0988084077835083, 
        -1.4818780422210693, 
        -0.5238624811172485, 
        -7.474745750427246, 
        -9.597554206848145, 
        -8.103595733642578, 
        -4.202016353607178, 
        -0.10550272464752197, 
        0.043119508773088455, 
        -0.06134020909667015, 
        -0.09840336441993713, 
        -0.0520162470638752, 
        -0.14590886235237122, 
        0.019528277218341827, 
        -0.03561810031533241, 
        0.013551861047744751, 
        -0.02832959219813347, 
        -0.01720777153968811, 
        -0.03269326686859131, 
        -0.14021947979927063, 
        0.031212495639920235, 
        -0.007529189810156822, 
        -0.04500183090567589, 
        0.03394655883312225, 
        -0.08161947876214981, 
        -0.07476655393838882, 
        -0.03209096938371658, 
        -0.020038990303874016, 
        0.07452883571386337, 
        -0.06254194676876068, 
        -0.023871270939707756, 
        0.01409637089818716, 
        0.004891649819910526, 
        0.03601229563355446, 
        0.039111409336328506, 
        -0.03056773543357849, 
        -0.01782320626080036, 
        0.06958676129579544, 
        -0.022451087832450867, 
        -0.031681135296821594, 
        0.10055680572986603, 
        -0.12015902996063232, 
        0.05535392090678215, 
        0.03796389698982239, 
        0.02218041755259037, 
        0.13228201866149902, 
        18.140300750732422, 
        1.8354729413986206, 
        2.1288347244262695, 
        1.1888790130615234, 
        1.0263481140136719, 
        1.2333621978759766, 
        1.1081494092941284, 
        6.091451168060303, 
        3.872494697570801, 
        1.1167603731155396, 
        -0.6697156429290771, 
        3.5688624382019043, 
        4.490626335144043, 
        4.001172065734863, 
        2.5998520851135254, 
        -0.10942137986421585, 
        -0.045821189880371094, 
        0.009400642476975918, 
        0.013352763839066029, 
        -0.006630143616348505, 
        -0.05663827434182167, 
        -0.02464107610285282, 
        -0.08909863978624344, 
        -0.12711594998836517, 
        -0.10740766674280167, 
        -0.008055927231907845, 
        0.07587137073278427, 
        0.01305672898888588, 
        0.16716794669628143, 
        0.0032262629829347134, 
        -0.07028796523809433, 
        -0.03763582557439804, 
        0.041728004813194275, 
        -0.06293807923793793, 
        -0.047082044184207916, 
        -0.03414566069841385, 
        -0.02650747448205948, 
        -0.06831980496644974, 
        0.047933660447597504, 
        -0.018834372982382774, 
        -0.10811036825180054, 
        -0.00012911923113279045, 
        -0.09975050389766693, 
        -0.00796800758689642, 
        -0.055391568690538406, 
        -0.10459204763174057, 
        0.0068316105753183365, 
        -0.056555621325969696, 
        -0.05373683199286461, 
        0.05352534353733063, 
        0.030185967683792114, 
        -0.07061810791492462, 
        -0.0817737951874733, 
        -0.011656542308628559, 
        -0.224996879696846, 
        0.024798428639769554, 
        -0.12791238725185394, 
        -0.08784885704517365, 
        -0.06456989049911499, 
        -0.04822751134634018, 
        -0.07614343613386154, 
        -0.07042260468006134, 
        -0.017682574689388275, 
        0.0639110878109932, 
        0.10768486559391022, 
        -0.13957659900188446, 
        -0.12195317447185516, 
        -0.1184166818857193, 
        -0.11187649518251419, 
        -0.07888107746839523, 
        -0.07309568673372269, 
        -0.01193439681082964, 
        -0.023983139544725418, 
        -0.1356004774570465, 
        0.017981186509132385, 
        -0.02447335608303547, 
        -0.06713318824768066, 
        0.010647900402545929, 
        0.0007484129746444523, 
        -0.09081045538187027, 
        -0.007556547876447439, 
        0.0010948871495202184, 
        -0.004869570955634117, 
        0.0030556407291442156, 
        0.0004626876034308225, 
        -0.011024588719010353, 
        0.0363023616373539, 
        -0.06938857585191727, 
        -0.03626108914613724, 
        -0.0579412579536438, 
        0.024595124647021294, 
        0.01890009455382824, 
        0.08541851490736008, 
        0.03615628555417061, 
        0.038992684334516525, 
        0.04111886024475098, 
        -0.015029177069664001, 
        0.02907416597008705, 
        -0.015347534790635109, 
        0.024682611227035522, 
        -0.0484299398958683, 
        0.002623200649395585, 
        0.030226388946175575, 
        0.01931891404092312, 
        0.059797026216983795, 
        -0.10012315958738327, 
        -0.08201823383569717, 
        -0.05810669809579849, 
        -2.455808162689209, 
        -0.29155391454696655, 
        -0.248792827129364, 
        -0.11691062152385712, 
        -0.1591537892818451, 
        -0.08760228008031845, 
        -0.15181812644004822, 
        -0.1336224526166916, 
        -0.1470688283443451, 
        -0.2314395159482956, 
        0.03644790127873421, 
        -0.2777014672756195, 
        -0.36614716053009033, 
        -0.33885571360588074, 
        -0.223683163523674, 
        0.0029324153438210487, 
        -0.03379850462079048, 
        -0.1074540913105011, 
        -0.02988840639591217, 
        -0.04759024456143379, 
        -0.01636149361729622, 
        0.02603425271809101, 
        -0.000908520130906254, 
        -0.11799373477697372, 
        -0.012642528861761093, 
        0.008233693428337574, 
        0.00015835034719202667, 
        0.06323175132274628, 
        -0.04300190508365631, 
        -0.01802264153957367, 
        0.01930997706949711, 
        0.0006036316626705229, 
        -0.008484254591166973, 
        -0.14288967847824097, 
        -0.09433864057064056, 
        -0.026363087818026543, 
        -0.014324503019452095, 
        -0.09401563555002213, 
        -0.0003673038736451417, 
        -0.04937642440199852, 
        -0.09392751753330231, 
        -0.053467173129320145, 
        -0.09985597431659698, 
        -0.016349434852600098, 
        -0.002343567321076989, 
        0.06064075976610184, 
        -0.13162042200565338, 
        -0.0075265392661094666, 
        -0.010751103982329369, 
        0.05756184458732605, 
        0.024835556745529175, 
        -0.06504750996828079, 
        -0.09447386860847473, 
        -0.05613454431295395, 
        0.09205874800682068, 
        -0.056773532181978226, 
        -0.07491158694028854, 
        -0.16757848858833313, 
        -0.020800532773137093, 
        -0.0050852373242378235, 
        -0.005848702043294907, 
        -0.15728844702243805, 
        -0.08678487688302994, 
        0.018387960270047188, 
        0.0805857852101326, 
        0.07683370262384415, 
        0.03215663135051727, 
        -0.009781758300960064, 
        0.025763971731066704, 
        -0.09773167967796326, 
        -0.13805846869945526, 
        -0.06877684593200684, 
        -2.3217051029205322, 
        -0.16508905589580536, 
        -0.040273308753967285, 
        -0.005080326460301876, 
        -0.00047911526053212583, 
        -0.00915347971022129, 
        0.1391785442829132, 
        0.07898228615522385, 
        -0.004581831861287355, 
        -0.09296921640634537, 
        -0.05737493559718132, 
        -0.07942366600036621, 
        -0.0707692876458168, 
        -0.08187329769134521, 
        -0.05193286016583443
      ]
    }, 
    {
      "activation": "rectified", 
      "architecture": "dense", 
      "bias": [
        -0.09486538171768188, 
        -0.08309279382228851, 
        -0.025248022750020027, 
        -0.6482688188552856, 
        -0.11695431172847748, 
        -0.051394764333963394, 
        -0.05440879613161087, 
        -0.04266306757926941, 
        -0.08022532612085342, 
        -0.08675961941480637, 
        -0.07003717124462128, 
        -0.06269209831953049, 
        -0.04072381928563118, 
        -1.6291992664337158, 
        -0.15549996495246887, 
        0.036691684275865555, 
        -3.002744197845459, 
        -0.07687343657016754, 
        -0.06916211545467377, 
        -0.7727874517440796, 
        -0.05166097730398178, 
        -1.3293635845184326, 
        -0.8364354372024536, 
        -0.06865167617797852, 
        -0.05912932753562927, 
        -0.23486138880252838, 
        -0.08517333120107651, 
        -0.16040168702602386, 
        -0.10527007281780243, 
        -0.03523477166891098, 
        -0.048241015523672104, 
        -1.0072526931762695, 
        -2.0374531745910645, 
        -0.07353616505861282, 
        -0.049114517867565155, 
        -0.21899978816509247, 
        -0.05865735188126564, 
        -0.08373885601758957, 
        -0.7082754373550415, 
        -0.6871806383132935
      ], 
      "weights": [
        -0.13196097314357758, 
        -0.0363910049200058, 
        -0.04913463070988655, 
        -0.10342248529195786, 
        0.02146807312965393, 
        0.029542328789830208, 
        -0.113854318857193, 
        0.014129283837974072, 
        -0.07401572912931442, 
        0.004507938865572214, 
        -0.07510997354984283, 
        0.08673427999019623, 
        -0.029895363375544548, 
        -0.12165484577417374, 
        -0.14415988326072693, 
        -0.027626262977719307, 
        -0.16245390474796295, 
        -0.09203191101551056, 
        -0.02353757433593273, 
        0.011082790791988373, 
        -0.08153045177459717, 
        -0.11347349733114243, 
        -0.059678107500076294, 
        -0.06490866839885712, 
        0.021458445116877556, 
        -0.03907936066389084, 
        -0.03849620372056961, 
        0.004922959022223949, 
        -0.0028612737078219652, 
        -0.045784760266542435, 
        0.06529258191585541, 
        -0.04779482260346413, 
        0.03013126365840435, 
        0.020625310018658638, 
        -0.008641553111374378, 
        -0.02594100497663021, 
        0.004978968296200037, 
        0.008545582182705402, 
        -0.013424348086118698, 
        -0.07983249425888062, 
        -0.08948452770709991, 
        0.07065095007419586, 
        -0.05257091671228409, 
        -0.028455697000026703, 
        0.10033800452947617, 
        -0.00014001292583998293, 
        -0.037690285593271255, 
        -0.044601958245038986, 
        -0.005592085421085358, 
        -0.06705174595117569, 
        -0.03253915160894394, 
        -0.03273962810635567, 
        0.016736097633838654, 
        -0.00983049813657999, 
        -0.009496631100773811, 
        0.03363838419318199, 
        -0.13173826038837433, 
        0.047941092401742935, 
        -0.11464929580688477, 
        -0.031056944280862808, 
        -0.016137588769197464, 
        0.034604258835315704, 
        -0.021785486489534378, 
        -0.12592042982578278, 
        -0.13387387990951538, 
        0.013664557598531246, 
        -0.12881934642791748, 
        0.09330659359693527, 
        0.0929999127984047, 
        -0.013354058377444744, 
        -0.047223109751939774, 
        0.052226461470127106, 
        0.041690751910209656, 
        -0.052356619387865067, 
        0.07519544661045074, 
        -0.10826084762811661, 
        0.028448021039366722, 
        0.02863479219377041, 
        -0.0193476602435112, 
        -0.04913368821144104, 
        0.08774997293949127, 
        0.05790648236870766, 
        0.002604936482384801, 
        -0.020054280757904053, 
        -0.0006674890755675733, 
        -0.02941979467868805, 
        -0.11479458212852478, 
        0.01964515633881092, 
        -0.031462881714105606, 
        -0.0036997157149016857, 
        -0.00245234789326787, 
        -0.04875106364488602, 
        0.046708784997463226, 
        -0.016854701563715935, 
        -0.1848779171705246, 
        -0.061346977949142456, 
        -0.10529333353042603, 
        -0.0470551922917366, 
        0.02108047530055046, 
        -0.019004032015800476, 
        -0.005433660000562668, 
        0.07291161268949509, 
        0.054460734128952026, 
        -0.10035797953605652, 
        -0.1578022837638855, 
        0.007903401739895344, 
        0.0020960194524377584, 
        -0.04277856647968292, 
        0.018780618906021118, 
        -0.014779397286474705, 
        0.029087502509355545, 
        0.01974727027118206, 
        -0.030023233965039253, 
        0.05272598937153816, 
        0.0077114286832511425, 
        -0.03416191041469574, 
        -0.02138909138739109, 
        0.012036371044814587, 
        -0.00645825220271945, 
        -0.04287324100732803, 
        0.045244477689266205, 
        0.020213788375258446, 
        0.03432721644639969, 
        0.04087793081998825, 
        -0.017543572932481766, 
        -0.08430352061986923, 
        0.014920552261173725, 
        -0.011078030802309513, 
        -0.003220856888219714, 
        -1.3644388914108276, 
        -5.013826370239258, 
        -3.5775465965270996, 
        0.022537877783179283, 
        1.5508285760879517, 
        -0.5798615217208862, 
        -0.03214991092681885, 
        0.14871066808700562, 
        0.0005391990998759866, 
        -0.01436878927052021, 
        -0.05739189311861992, 
        -0.23643870651721954, 
        0.035263095051050186, 
        -0.07256077229976654, 
        -4.242043972015381, 
        -6.7654709815979, 
        -0.008689072914421558, 
        0.18673521280288696, 
        0.019660385325551033, 
        0.020001566037535667, 
        -0.6745728254318237, 
        0.08823710680007935, 
        -0.006551239639520645, 
        0.07295825332403183, 
        0.013241654261946678, 
        0.01829569786787033, 
        -0.1285797506570816, 
        -0.02889876812696457, 
        0.03408512473106384, 
        0.02582770213484764, 
        -0.25939056277275085, 
        -0.030852749943733215, 
        -0.06727541238069534, 
        0.005417481064796448, 
        -0.06589078158140182, 
        -0.005383807700127363, 
        -0.09293154627084732, 
        -0.15997999906539917, 
        -0.018532460555434227, 
        -0.01698121801018715, 
        -0.08101197332143784, 
        -0.03465498238801956, 
        -0.18432976305484772, 
        -0.03740173578262329, 
        -0.1060776636004448, 
        -0.05483981966972351, 
        0.034355323761701584, 
        -0.08457894623279572, 
        -0.003099840832874179, 
        -0.057267189025878906, 
        0.04557148739695549, 
        -0.20172779262065887, 
        0.023674143478274345, 
        0.02974114380776882, 
        -0.06592437624931335, 
        -0.07914019376039505, 
        0.011170477606356144, 
        0.019934849813580513, 
        0.013607672415673733, 
        0.07021207362413406, 
        0.020889295265078545, 
        0.07950068265199661, 
        -0.036944787949323654, 
        0.11534027010202408, 
        0.04650725796818733, 
        0.049773383885622025, 
        -0.0909707322716713, 
        -0.0008689883979968727, 
        -0.05606165528297424, 
        0.016367875039577484, 
        -0.08480322360992432, 
        -0.11052651703357697, 
        -0.006825616583228111, 
        -0.00874201487749815, 
        -0.01375851035118103, 
        0.036311324685811996, 
        -0.03248300775885582, 
        -0.10936443507671356, 
        -0.0789618268609047, 
        -0.03535206988453865, 
        0.04404691979289055, 
        -0.24536995589733124, 
        -0.12652519345283508, 
        -0.024103747680783272, 
        0.0019692720379680395, 
        -0.3051479160785675, 
        -0.09647221118211746, 
        -0.07735797762870789, 
        -0.03282161429524422, 
        -0.06545421481132507, 
        -0.04513227194547653, 
        -0.06881731003522873, 
        0.04451463744044304, 
        -0.10265279561281204, 
        -0.04005640372633934, 
        0.009026624262332916, 
        -0.03453971445560455, 
        -0.21637985110282898, 
        0.02663782238960266, 
        0.1209736242890358, 
        -0.07409845292568207, 
        0.06544067710638046, 
        -0.035147473216056824, 
        -0.03689918667078018, 
        -0.054586607962846756, 
        -0.1526956409215927, 
        -0.06831659376621246, 
        0.08151555061340332, 
        0.05464428663253784, 
        0.03278082609176636, 
        -0.15502217411994934, 
        -0.034605808556079865, 
        -0.0600886307656765, 
        0.02376209758222103, 
        -0.039710115641355515, 
        0.025230178609490395, 
        0.06508953869342804, 
        -0.033399298787117004, 
        -0.05369917303323746, 
        -0.0037190341390669346, 
        0.020384859293699265, 
        -0.21017912030220032, 
        -0.03525746241211891, 
        0.05326803773641586, 
        -0.041065048426389694, 
        -0.06819574534893036, 
        -0.007125220727175474, 
        -0.11760152131319046, 
        -0.05373288691043854, 
        -0.10221441835165024, 
        -0.003827906446531415, 
        -0.01579056680202484, 
        -0.040950387716293335, 
        -0.02300926111638546, 
        0.014354009181261063, 
        -0.16543231904506683, 
        0.0019339435966685414, 
        0.01622176542878151, 
        0.0007957060006447136, 
        0.027144232764840126, 
        -0.2661374807357788, 
        -0.0034206067211925983, 
        0.043389059603214264, 
        0.04105614125728607, 
        0.030852163210511208, 
        -0.010937478393316269, 
        -0.036101993173360825, 
        -0.04286299645900726, 
        0.014660671353340149, 
        0.0042391130700707436, 
        0.004207125864923, 
        -0.036925096064805984, 
        0.07158709317445755, 
        -0.018116725608706474, 
        -0.021945005282759666, 
        -0.05488971620798111, 
        -0.05559154227375984, 
        -0.08811836689710617, 
        0.034294888377189636, 
        0.05322594568133354, 
        -0.03371068090200424, 
        -0.10460401326417923, 
        -0.019027438014745712, 
        0.04916341230273247, 
        0.027296723797917366, 
        0.013866503722965717, 
        0.022282488644123077, 
        0.013663816265761852, 
        -0.019684316590428352, 
        -0.07507576793432236, 
        -0.008466052822768688, 
        -0.05143639072775841, 
        -0.02213502861559391, 
        0.008634842000901699, 
        -0.0049940915778279305, 
        -0.07487110048532486, 
        0.013425152748823166, 
        -0.034970007836818695, 
        -0.06523602455854416, 
        -0.014585050754249096, 
        -0.09741448611021042, 
        0.0378120131790638, 
        0.01570211723446846, 
        0.007144078146666288, 
        0.012183566577732563, 
        -0.003368691774085164, 
        0.018101047724485397, 
        0.056439418345689774, 
        -0.04225071147084236, 
        -0.08879630267620087, 
        -0.008974171243607998, 
        -0.05919649079442024, 
        0.013829942792654037, 
        -0.025519102811813354, 
        0.06142223998904228, 
        0.009578769095242023, 
        -0.046962421387434006, 
        -0.07895226031541824, 
        -0.0287338737398386, 
        0.029961152002215385, 
        -0.07269197702407837, 
        -0.101950503885746, 
        0.05200546979904175, 
        -0.04119990020990372, 
        -0.021062614396214485, 
        -0.09318462014198303, 
        0.01697434112429619, 
        -0.06474459171295166, 
        -0.021290689706802368, 
        -0.07131248712539673, 
        0.023051787167787552, 
        -0.025767816230654716, 
        0.012520032934844494, 
        0.004967343062162399, 
        -0.03554332256317139, 
        -0.10923583060503006, 
        -0.09011130779981613, 
        -0.1282763034105301, 
        -0.009209651499986649, 
        0.004931006580591202, 
        -0.0186906810849905, 
        -0.08230549097061157, 
        -0.03251856565475464, 
        0.034480225294828415, 
        -0.06165746599435806, 
        -0.004828223492950201, 
        -0.10224679112434387, 
        -0.07627933472394943, 
        0.0003177572216372937, 
        -0.07092192023992538, 
        -0.019103646278381348, 
        0.008716439828276634, 
        -0.045271482318639755, 
        -0.0003548547683749348, 
        -0.11522610485553741, 
        0.0078093791380524635, 
        0.07492420822381973, 
        0.009834058582782745, 
        0.009810739196836948, 
        0.00590894278138876, 
        -0.045460332185029984, 
        -0.020910603925585747, 
        0.08047372847795486, 
        0.04013413190841675, 
        -0.1624792218208313, 
        -0.0026240849401801825, 
        -0.0776103138923645, 
        -0.004601622931659222, 
        -0.018490467220544815, 
        -0.02161565236747265, 
        0.048759203404188156, 
        -0.10707283765077591, 
        -0.058521393686532974, 
        -0.06431575864553452, 
        -0.02979358099400997, 
        -0.06642656773328781, 
        -0.08933977037668228, 
        -0.03805255517363548, 
        -0.025692645460367203, 
        0.025040974840521812, 
        -0.047185108065605164, 
        -0.08464492112398148, 
        -0.01947278343141079, 
        -0.0398356132209301, 
        0.005843196529895067, 
        -0.014889162965118885, 
        -0.09239429980516434, 
        -0.013279981911182404, 
        -0.01595202274620533, 
        0.019262434914708138, 
        -0.08623506873846054, 
        0.0029817200265824795, 
        0.029749957844614983, 
        0.04806051030755043, 
        -0.11955638229846954, 
        -0.03244547173380852, 
        -0.015588505193591118, 
        -0.07927457243204117, 
        -0.04060077667236328, 
        -0.09011876583099365, 
        -0.13039962947368622, 
        -0.0664772167801857, 
        -0.12377532571554184, 
        0.01052708737552166, 
        0.0057439119555056095, 
        -0.019022688269615173, 
        -0.05233285203576088, 
        -0.045196279883384705, 
        -0.021356690675020218, 
        -0.06189737841486931, 
        -0.027081584557890892, 
        -0.008616337552666664, 
        -0.13981670141220093, 
        -0.07499099522829056, 
        0.009254504926502705, 
        -0.07752344012260437, 
        -0.02647574245929718, 
        -0.08880136907100677, 
        -0.023272639140486717, 
        0.03102722018957138, 
        -0.14568167924880981, 
        0.026647798717021942, 
        7.183015259215608e-05, 
        0.07782913744449615, 
        -0.02263207919895649, 
        0.08715209364891052, 
        -0.11475124955177307, 
        -0.03624260053038597, 
        0.027787765488028526, 
        -0.03351005166769028, 
        0.02625778503715992, 
        -0.0441766157746315, 
        0.10541550070047379, 
        0.040496811270713806, 
        -0.07906626164913177, 
        -0.06895752251148224, 
        -0.04809870198369026, 
        -0.07482615858316422, 
        0.00691990926861763, 
        -0.05504995211958885, 
        -0.08542459458112717, 
        -0.004513464868068695, 
        -0.05151446536183357, 
        -0.07140226662158966, 
        -0.10207107663154602, 
        -0.04629078507423401, 
        -0.004806187469512224, 
        0.012900023721158504, 
        -0.05255989357829094, 
        -0.03608282282948494, 
        -0.06624387949705124, 
        -0.02761097624897957, 
        0.009926858358085155, 
        -0.09679833799600601, 
        -0.10089077055454254, 
        -0.12746499478816986, 
        0.0655151829123497, 
        0.0235674437135458, 
        -0.02133430354297161, 
        0.047391679137945175, 
        -0.08686811476945877, 
        -0.03965724632143974, 
        0.09457552433013916, 
        -0.03114992380142212, 
        0.12704917788505554, 
        -0.008948768489062786, 
        -0.04041615501046181, 
        -0.03790533170104027, 
        -0.0109872343018651, 
        0.06514525413513184, 
        -0.03401770070195198, 
        -0.026980547234416008, 
        -0.08918743580579758, 
        0.01545653399080038, 
        -0.0034156623296439648, 
        0.0054095140658319, 
        -0.06573829799890518, 
        0.10372208058834076, 
        -0.03696303442120552, 
        0.05404648929834366, 
        0.039001889526844025, 
        -0.017049450427293777, 
        -0.03913071006536484, 
        -0.0741046890616417, 
        0.031559351831674576, 
        -0.06125927343964577, 
        0.02703983336687088, 
        0.053198039531707764, 
        -0.026308270171284676, 
        -0.09610378742218018, 
        0.02405751869082451, 
        -0.06244639679789543, 
        -0.04252292960882187, 
        -0.00844514835625887, 
        -0.07443627715110779, 
        -0.08238829672336578, 
        0.057301249355077744, 
        -0.05459296703338623, 
        -0.010128585621714592, 
        0.03037775494158268, 
        -0.1166098490357399, 
        0.046411849558353424, 
        -0.006842043250799179, 
        -0.0769854336977005, 
        -0.015911966562271118, 
        0.05028316378593445, 
        -0.12505292892456055, 
        0.06865187734365463, 
        -0.019300127401947975, 
        0.07548850029706955, 
        -0.03297708183526993, 
        0.07661978155374527, 
        -0.034554097801446915, 
        -0.0036423124838620424, 
        -0.03974181041121483, 
        -0.09233642369508743, 
        0.010825913399457932, 
        0.023918883875012398, 
        0.04855231195688248, 
        0.0039815413765609264, 
        -1.897626519203186, 
        -0.022641045972704887, 
        0.15691281855106354, 
        0.026178028434515, 
        -0.6942598223686218, 
        0.23319299519062042, 
        0.048450957983732224, 
        0.14319787919521332, 
        0.025130387395620346, 
        -0.06272066384553909, 
        0.009815933182835579, 
        -0.4207267165184021, 
        -0.06858054548501968, 
        0.0383327454328537, 
        -0.052325911819934845, 
        -0.25950780510902405, 
        -0.0602828748524189, 
        -2.548647880554199, 
        0.04594961553812027, 
        0.06966525316238403, 
        -0.9117406010627747, 
        0.025881709530949593, 
        0.07328911870718002, 
        0.059958428144454956, 
        -0.033770155161619186, 
        -0.08409535884857178, 
        0.0672859251499176, 
        0.03981337323784828, 
        -0.03620106354355812, 
        -0.012631450779736042, 
        -0.008854101411998272, 
        -0.09773816913366318, 
        -0.061200302094221115, 
        -0.0056304470635950565, 
        -0.040129028260707855, 
        0.005376307759433985, 
        0.06933794915676117, 
        -0.2040901631116867, 
        -0.05631747841835022, 
        0.06925097107887268, 
        -0.13390520215034485, 
        -0.11683107167482376, 
        -0.01249533798545599, 
        -0.08864616602659225, 
        -0.021035904064774513, 
        -0.0833098441362381, 
        0.004445862490683794, 
        -0.07144398987293243, 
        -0.1088094487786293, 
        -0.0018726192647591233, 
        0.010624831542372704, 
        -0.07092642039060593, 
        0.005956979934126139, 
        0.0050688316114246845, 
        0.04930678382515907, 
        -0.05538356304168701, 
        -0.07612103968858719, 
        -0.2019258290529251, 
        -0.03740086778998375, 
        0.005965249612927437, 
        -0.18390072882175446, 
        0.23790597915649414, 
        0.04672177508473396, 
        -0.011315141804516315, 
        0.016998864710330963, 
        -0.04792512208223343, 
        0.0005545900785364211, 
        0.05994546040892601, 
        0.019454527646303177, 
        -0.012655755504965782, 
        -0.07207956165075302, 
        -0.2828722298145294, 
        -0.06064854934811592, 
        -0.06423788517713547, 
        -0.0536433644592762, 
        0.03627128154039383, 
        0.013191432692110538, 
        -0.6717677712440491, 
        0.07050538808107376, 
        -0.03283246234059334, 
        -2.2823803424835205, 
        0.1485508382320404, 
        1.9646296501159668, 
        0.021624496206641197, 
        -3.065380573272705, 
        0.2584855556488037, 
        -0.05545349791646004, 
        -0.14038443565368652, 
        -0.11959810554981232, 
        0.05358703061938286, 
        0.07174819707870483, 
        -10.62866497039795, 
        -0.015553191304206848, 
        0.13040520250797272, 
        0.21155497431755066, 
        -0.27558770775794983, 
        -0.031335458159446716, 
        -0.66336590051651, 
        0.01905069686472416, 
        -0.039924729615449905, 
        -3.2073683738708496, 
        0.028895407915115356, 
        0.10285194218158722, 
        -0.026267657056450844, 
        -0.11641710251569748, 
        0.012453029863536358, 
        -0.06429484486579895, 
        0.041201259940862656, 
        -0.013682945631444454, 
        -0.050466932356357574, 
        -0.08165006339550018, 
        -0.02297321707010269, 
        0.05032430589199066, 
        0.05366047844290733, 
        0.04415184631943703, 
        0.036923836916685104, 
        0.03149464726448059, 
        0.06990335136651993, 
        0.04407111927866936, 
        -0.02232600562274456, 
        -0.11614051461219788, 
        -0.5163981914520264, 
        0.06130329146981239, 
        0.04212772473692894, 
        0.02625742368400097, 
        0.06450875848531723, 
        -0.01685117930173874, 
        -0.008363824337720871, 
        0.08441833406686783, 
        -0.021647637709975243, 
        -0.002164179924875498, 
        0.18399636447429657, 
        0.05187719315290451, 
        0.014136416837573051, 
        -0.5960882306098938, 
        -0.5713251233100891, 
        0.01227355096489191, 
        -0.4082276523113251, 
        0.04532068222761154, 
        -0.06439794600009918, 
        -0.7176681756973267, 
        0.0261260773986578, 
        0.13308529555797577, 
        0.03297420218586922, 
        -0.007540946360677481, 
        0.08401158452033997, 
        0.04743407666683197, 
        0.03967628628015518, 
        -0.02848685346543789, 
        0.03380393981933594, 
        -0.02955472096800804, 
        -0.23256924748420715, 
        -0.017467781901359558, 
        -0.016784733161330223, 
        -0.05620525777339935, 
        0.058124154806137085, 
        0.027882659807801247, 
        -0.0693078264594078, 
        0.041979238390922546, 
        0.012814566493034363, 
        -0.16044504940509796, 
        0.0037739186082035303, 
        0.030895518139004707, 
        0.0657738596200943, 
        -0.1129862368106842, 
        -0.014757261611521244, 
        -0.1109200268983841, 
        -0.1656348705291748, 
        0.07173879444599152, 
        -0.04541085287928581, 
        0.0007953755557537079, 
        -0.023333491757512093, 
        -0.20268023014068604, 
        -0.03754660114645958, 
        -0.14131146669387817, 
        0.0017840383807197213, 
        -0.028814567252993584, 
        -0.019181810319423676, 
        -0.0699479952454567, 
        -0.02782745473086834, 
        -0.16484884917736053, 
        0.008890174329280853, 
        -0.008942602202296257, 
        -0.004934299271553755, 
        0.054565396159887314, 
        -0.03771895170211792, 
        -0.04920278117060661, 
        -0.06277982890605927, 
        -0.01881389133632183, 
        -0.019109120592474937, 
        -0.026501920074224472, 
        -0.07437533885240555, 
        0.07168695330619812, 
        -0.07522834837436676, 
        0.01605529524385929, 
        0.05404765531420708, 
        0.03126060962677002, 
        0.07509718835353851, 
        -0.036732327193021774, 
        0.005643587559461594, 
        -0.04855358228087425, 
        -0.030370598658919334, 
        0.01564859226346016, 
        -0.10029183328151703, 
        0.045640863478183746, 
        -0.18748661875724792, 
        -0.015508285723626614, 
        -0.010608268901705742, 
        0.004135149996727705, 
        -0.04712395370006561, 
        0.020198680460453033, 
        -0.1661435067653656, 
        0.037290822714567184, 
        -0.0379006527364254, 
        -0.0930912047624588, 
        0.016910456120967865, 
        -0.04720676690340042, 
        -0.181387796998024, 
        0.06987439841032028, 
        0.012675799429416656, 
        -0.12151346355676651, 
        -0.0008968555484898388, 
        0.013686119578778744, 
        -0.004888079594820738, 
        -0.09354007989168167, 
        -0.07304661720991135, 
        0.0731436163187027, 
        0.04302319139242172, 
        0.028107209131121635, 
        -0.005088021047413349, 
        -0.17023079097270966, 
        -0.024244820699095726, 
        -0.06085092946887016, 
        0.00239409483037889, 
        -0.050114914774894714, 
        0.006619296036660671, 
        -0.05293189361691475, 
        0.08542631566524506, 
        0.016530556604266167, 
        0.08780729025602341, 
        -0.4466942250728607, 
        -0.7931486964225769, 
        -0.4591792821884155, 
        0.010198351927101612, 
        0.2149975597858429, 
        -0.544434666633606, 
        0.06376919895410538, 
        0.022498460486531258, 
        -0.0049959830939769745, 
        -0.04498124122619629, 
        -0.005620636511594057, 
        -0.09831610321998596, 
        0.012344657443463802, 
        -0.08101188391447067, 
        -1.013403296470642, 
        -1.0078829526901245, 
        -0.005283195059746504, 
        0.03002333454787731, 
        -0.06583584100008011, 
        0.02252247743308544, 
        -0.17776909470558167, 
        0.08959004282951355, 
        0.05858457088470459, 
        -0.09749475866556168, 
        0.039266567677259445, 
        -0.012075833976268768, 
        -0.08885331451892853, 
        -0.06130426004528999, 
        0.04724444821476936, 
        0.06519699841737747, 
        -0.09840726107358932, 
        -0.07617249339818954, 
        0.03554927185177803, 
        0.005486458074301481, 
        -0.039932992309331894, 
        0.00461130915209651, 
        -0.027535999193787575, 
        -0.05809702351689339, 
        0.08947182446718216, 
        -0.0023604545276612043, 
        -0.05186436325311661, 
        -0.052231315523386, 
        -0.030792251229286194, 
        -0.05266241356730461, 
        -0.075630322098732, 
        -0.0387827605009079, 
        -0.05500593036413193, 
        -0.0800638198852539, 
        0.00824304111301899, 
        -0.059488970786333084, 
        0.002832327736541629, 
        -0.001098007196560502, 
        -0.014066321775317192, 
        0.0380304679274559, 
        -0.057991884648799896, 
        -0.02605612389743328, 
        0.04464566335082054, 
        -0.08177401125431061, 
        -0.061346109956502914, 
        -0.025504836812615395, 
        -0.09006542712450027, 
        0.05317649990320206, 
        -0.009216229431331158, 
        -0.03933023288846016, 
        0.09025769680738449, 
        0.03859983757138252, 
        -0.005739219952374697, 
        -0.03959570452570915, 
        0.00878958124667406, 
        -0.08150079101324081, 
        -0.0018513883696869016, 
        -0.04241903871297836, 
        -0.012140014208853245, 
        -0.03577684983611107, 
        0.011581496335566044, 
        0.10913170129060745, 
        0.03330795839428902, 
        -0.0945284515619278, 
        0.011975467205047607, 
        0.007416219916194677, 
        -0.355101078748703, 
        1.019171118736267, 
        0.3871804177761078, 
        -0.03592522069811821, 
        -0.40964385867118835, 
        0.3998839855194092, 
        0.01871337555348873, 
        0.13330784440040588, 
        0.022429918870329857, 
        -0.027390798553824425, 
        0.027737800031900406, 
        -1.4886583089828491, 
        -0.01855253428220749, 
        0.0885622426867485, 
        0.5339422225952148, 
        0.3760855793952942, 
        0.09355650097131729, 
        -0.5366393327713013, 
        -0.014453927055001259, 
        -0.08711809664964676, 
        -0.214403435587883, 
        -0.06628666073083878, 
        0.004365163389593363, 
        -0.02109689824283123, 
        0.019247451797127724, 
        -0.01853989064693451, 
        -0.04689876362681389, 
        0.043348077684640884, 
        -0.03868233412504196, 
        -0.012804454192519188, 
        0.0537249855697155, 
        -0.04491721838712692, 
        0.00800738949328661, 
        -0.05062893033027649, 
        0.03962283954024315, 
        -0.08563904464244843, 
        -0.04772292822599411, 
        -0.09762318432331085, 
        -0.041727785021066666, 
        -0.06264083832502365, 
        -0.5597847104072571, 
        -0.07919766008853912, 
        0.02146141603589058, 
        -0.030422598123550415, 
        0.0650259256362915, 
        0.0794384628534317, 
        0.048207126557826996, 
        -0.18840809166431427, 
        0.031841885298490524, 
        -0.047256577759981155, 
        -0.008123897947371006, 
        -0.7797621488571167, 
        -0.043981313705444336, 
        0.027333538979291916, 
        0.022378476336598396, 
        -0.05351421982049942, 
        -0.07864965498447418, 
        -0.660015344619751, 
        0.018782496452331543, 
        0.10201339423656464, 
        -0.8503802418708801, 
        0.029268577694892883, 
        -0.038598671555519104, 
        -0.004902702756226063, 
        -0.03408437594771385, 
        -0.05929441377520561, 
        -0.028642691671848297, 
        0.03306775167584419, 
        0.006330165080726147, 
        -0.009302140213549137, 
        -0.04507454112172127, 
        -0.18662188947200775, 
        -0.04276244342327118, 
        -0.033598609268665314, 
        -0.14436286687850952, 
        -0.019573576748371124, 
        -0.08595370501279831, 
        -0.07737111300230026, 
        0.08341449499130249, 
        -0.007189845200628042, 
        -0.11006820946931839, 
        -0.04136505722999573, 
        -0.11382616311311722, 
        -0.012030817568302155, 
        -0.08580133318901062, 
        0.04901599884033203, 
        -0.16623803973197937, 
        -0.008753885515034199, 
        -0.012734010815620422, 
        0.04613453522324562, 
        -0.05235856771469116, 
        -0.06165998801589012, 
        -0.09962236881256104, 
        -0.06044873595237732, 
        -0.04711683467030525, 
        -0.032680392265319824, 
        -0.011259131133556366, 
        0.06542963534593582, 
        -0.011052222922444344, 
        -0.001492828014306724, 
        -0.1576133817434311, 
        -0.017434507608413696, 
        0.042489271610975266, 
        -0.05610558018088341, 
        -0.11231600493192673, 
        0.027256404981017113, 
        -0.13132578134536743, 
        -0.10250858962535858, 
        0.008805165998637676, 
        -0.04614316299557686, 
        -0.018422026187181473, 
        -0.03541422635316849, 
        0.03766217455267906, 
        -0.027040353044867516, 
        -0.06211712956428528, 
        0.009828558191657066, 
        -0.006011347286403179, 
        -0.06817552447319031, 
        0.02059014141559601, 
        0.03906676173210144, 
        -0.05459173768758774, 
        -0.00834667682647705, 
        -0.024493539705872536, 
        0.001612599822692573, 
        -0.009963029064238071, 
        -0.019419685006141663, 
        -0.006295038852840662, 
        -0.06136573106050491, 
        -0.07803592085838318, 
        -0.06657195091247559, 
        0.0013449399266391993, 
        -0.10818473994731903, 
        0.0031724809668958187, 
        -0.01088088657706976, 
        -0.004502569790929556, 
        -0.06418101489543915, 
        -0.01779453083872795, 
        -0.01982673443853855, 
        0.039275847375392914, 
        0.04473407566547394, 
        -0.01813216507434845, 
        -0.02717125229537487, 
        -0.0646776631474495, 
        0.01678726077079773, 
        0.027841726318001747, 
        -0.02350464276969433, 
        -0.11050590872764587, 
        -0.052090197801589966, 
        -0.03622180223464966, 
        0.07690118253231049, 
        0.05770252272486687, 
        -0.20615755021572113, 
        -0.04984137788414955, 
        -0.014554949477314949, 
        0.032502271234989166, 
        0.037957049906253815, 
        -0.033615145832300186, 
        -0.39226245880126953, 
        0.014002153649926186, 
        0.020140333101153374, 
        -0.21509206295013428, 
        -0.13886979222297668, 
        0.07372071593999863, 
        -0.019036471843719482, 
        -0.08455772697925568, 
        -0.060531776398420334, 
        -0.006041082553565502, 
        -0.12565980851650238, 
        -0.12003663927316666, 
        0.01587512157857418, 
        0.013050134293735027, 
        -0.15330421924591064, 
        -0.09106805175542831, 
        0.12553614377975464, 
        -0.04412175714969635, 
        -0.012243269942700863, 
        -0.005134114529937506, 
        -0.15687142312526703, 
        -0.005349986255168915, 
        -0.010693508200347424, 
        -0.39276668429374695, 
        -0.028180403634905815, 
        0.01534229051321745, 
        -0.011150798760354519, 
        0.07241041213274002, 
        0.04852105677127838, 
        0.002739443676546216, 
        -0.07028606534004211, 
        -0.029922207817435265, 
        -0.033142078667879105, 
        -0.172249436378479, 
        0.06332685053348541, 
        -0.064244344830513, 
        0.03097613714635372, 
        -0.08780908584594727, 
        -0.010366343893110752, 
        0.02488812431693077, 
        -0.10931938141584396, 
        -0.026707708835601807, 
        0.06125696748495102, 
        -0.08352074772119522, 
        -0.2560206949710846, 
        -0.05539867654442787, 
        0.03278243541717529, 
        0.1226009801030159, 
        -0.21553856134414673, 
        0.08215072005987167, 
        0.01098226010799408, 
        -0.02291465923190117, 
        -0.05777435377240181, 
        -0.026995059102773666, 
        -0.015766143798828125, 
        -0.04510926082730293, 
        -0.019780360162258148, 
        -0.6570119857788086, 
        -0.7942494750022888, 
        -0.03254534676671028, 
        -0.05134251341223717, 
        -0.09937620162963867, 
        -0.01441171858459711, 
        -0.07775423675775528, 
        -0.03350447118282318, 
        -0.0503048375248909, 
        -0.0017539754044264555, 
        -0.04269455000758171, 
        -0.010886562056839466, 
        -0.26426321268081665, 
        -0.16968414187431335, 
        0.03488714620471001, 
        -0.10059814155101776, 
        -0.33593180775642395, 
        -0.042971156537532806, 
        0.019317960366606712, 
        -0.040143806487321854, 
        0.05538208782672882, 
        -0.06010144576430321, 
        -0.08351322263479233, 
        -0.11533737182617188, 
        0.038877587765455246, 
        0.05811629071831703, 
        -0.27173399925231934, 
        -0.35757628083229065, 
        -0.23219776153564453, 
        0.025640496984124184, 
        0.08193239569664001, 
        -0.27998778223991394, 
        0.12632060050964355, 
        -0.06661637127399445, 
        -0.06675747036933899, 
        -0.06757821142673492, 
        -0.03224903717637062, 
        -0.03892703726887703, 
        -0.01627085544168949, 
        -0.0069252545945346355, 
        -0.328095942735672, 
        -0.43705353140830994, 
        0.06616882234811783, 
        -0.017056547105312347, 
        0.010925684124231339, 
        0.016070328652858734, 
        -0.06501979380846024, 
        -0.062110792845487595, 
        0.057420771569013596, 
        -0.06848824769258499, 
        -0.04011079668998718, 
        -0.03432081639766693, 
        -0.12827900052070618, 
        -0.019438261166214943, 
        -0.10640891641378403, 
        -0.06084802746772766, 
        -0.37534964084625244, 
        -0.08825229108333588, 
        -0.04885084927082062, 
        0.09872424602508545, 
        0.020452048629522324, 
        -0.10897326469421387, 
        0.01295769214630127, 
        -0.07613858580589294, 
        0.03336622565984726, 
        0.01332188118249178, 
        -0.15653273463249207, 
        -0.32281142473220825, 
        -0.10742363333702087, 
        -0.029757559299468994, 
        -0.10691025853157043, 
        0.01620226912200451, 
        -0.06060352176427841, 
        -0.04232477396726608, 
        0.04103173688054085, 
        -0.006898096296936274, 
        0.04843407869338989, 
        -0.11688248068094254, 
        0.0015296132769435644, 
        -0.05139258876442909, 
        -0.20061080157756805, 
        0.015016830526292324, 
        -0.047036994248628616, 
        -0.14872130751609802, 
        -0.02156931720674038, 
        0.0041808877140283585, 
        -0.012041785754263401, 
        -0.013440417125821114, 
        0.018456408753991127, 
        0.04019348695874214, 
        0.012294996529817581, 
        0.039775390177965164, 
        0.019432432949543, 
        -0.0655600056052208, 
        0.015323104336857796, 
        -0.037745509296655655, 
        0.026065722107887268, 
        0.06562545895576477, 
        -0.04688853397965431, 
        0.07650534808635712, 
        -0.04196011275053024, 
        -0.08100494742393494, 
        -0.032261040061712265, 
        -0.019047776237130165, 
        0.01465846598148346, 
        -0.034209806472063065, 
        0.034473661333322525, 
        -0.10341522097587585, 
        -0.004282085224986076, 
        -0.03705890104174614, 
        -0.02024511620402336, 
        -0.0018290727166458964, 
        -0.10272824019193649, 
        0.008832819759845734, 
        0.03566485270857811, 
        -0.052490897476673126, 
        0.025698194280266762, 
        -0.13963524997234344, 
        0.02995970845222473, 
        -0.02760053426027298, 
        -0.12993964552879333, 
        -0.10344627499580383, 
        0.00154920166824013, 
        -0.06267929822206497, 
        -0.021925602108240128, 
        0.0675365999341011, 
        -0.11234058439731598, 
        -0.08780524134635925, 
        -0.011496681720018387, 
        -0.0050849695689976215, 
        -0.0243863295763731, 
        0.06486295908689499, 
        -0.10837125778198242, 
        0.0510658323764801, 
        0.01561278011649847, 
        0.013490409590303898, 
        0.03412874415516853, 
        0.0018477521371096373, 
        0.012751363217830658, 
        0.05836101993918419, 
        -0.11417408287525177, 
        -0.018591806292533875, 
        -0.038165364414453506, 
        -0.07857902348041534, 
        -0.006446979008615017, 
        -0.03813580796122551, 
        0.11487845331430435, 
        -0.108946792781353, 
        -0.02963259071111679, 
        0.06301504373550415, 
        -0.13732102513313293, 
        -0.09921775013208389, 
        -0.021866878494620323, 
        -0.1064448431134224, 
        0.0019256151281297207, 
        0.03379065915942192, 
        0.03964414447546005, 
        -0.15568171441555023, 
        0.008412783965468407, 
        0.02760174311697483, 
        -0.030927568674087524, 
        0.0074889385141432285, 
        -0.060953088104724884, 
        -0.030964652076363564, 
        -2.96972048090538e-05, 
        0.058266110718250275, 
        -0.10216984152793884, 
        -0.013857796788215637, 
        0.033487651497125626, 
        -0.014439798891544342, 
        -0.022054797038435936, 
        0.009626545943319798, 
        -0.12167702615261078, 
        -0.15710628032684326, 
        -0.06011486053466797, 
        -0.08049599826335907, 
        -0.06249883025884628, 
        -0.09466363489627838, 
        -0.020784243941307068, 
        0.03673411160707474, 
        0.03759953752160072, 
        -0.001996518112719059, 
        0.026232847943902016, 
        -0.04339565709233284, 
        0.08032605797052383, 
        0.04597797244787216, 
        -0.16407836973667145, 
        0.05325964465737343, 
        -0.17183749377727509, 
        0.03695615008473396, 
        -0.01261375192552805, 
        -0.019697802141308784, 
        -0.023840932175517082, 
        -0.01448315940797329, 
        0.004476873204112053, 
        -0.03307309001684189, 
        0.0023772227577865124, 
        -0.4233108460903168, 
        0.08355660736560822, 
        0.012405465357005596, 
        -0.10002835839986801, 
        -0.06248832121491432, 
        0.02094222791492939, 
        -0.18888771533966064, 
        -0.002889183582738042, 
        -0.0247668344527483, 
        -0.6046141982078552, 
        -0.022578153759241104, 
        0.001145046902820468, 
        0.023777546361088753, 
        -0.024568213149905205, 
        -0.04000210389494896, 
        0.03304936736822128, 
        -0.018876267597079277, 
        -0.017792072147130966, 
        0.05135602131485939, 
        0.01564503274857998, 
        0.0764971375465393, 
        0.013627385720610619, 
        -0.021290093660354614, 
        0.07064025849103928, 
        0.005823440384119749, 
        0.10099674016237259, 
        0.12756022810935974, 
        0.037329863756895065, 
        -0.016053175553679466, 
        -0.3460608422756195, 
        -0.9784796237945557, 
        -0.2592170536518097, 
        0.0026443435344845057, 
        0.22862553596496582, 
        -0.36712637543678284, 
        0.020843319594860077, 
        -0.044915392994880676, 
        0.009390370920300484, 
        -0.028067924082279205, 
        0.02203802764415741, 
        1.3871729373931885, 
        -0.08785702288150787, 
        0.07694511115550995, 
        -0.46863457560539246, 
        -0.4860563576221466, 
        0.0012314600171521306, 
        0.4643896222114563, 
        0.036873627454042435, 
        -0.05735616013407707, 
        0.18733255565166473, 
        -0.021981677040457726, 
        -0.01827225089073181, 
        0.020418962463736534, 
        -0.029440507292747498, 
        0.03828760236501694, 
        -0.1096988245844841, 
        -0.08493023365736008, 
        -0.06281568109989166, 
        -0.012226405553519726, 
        -0.11168532818555832, 
        -0.02976491115987301, 
        -0.04716448858380318, 
        0.034750863909721375, 
        -0.10373332351446152, 
        0.04067818075418472, 
        -0.1151176318526268, 
        -0.07903869450092316, 
        0.06841906905174255, 
        -0.008727483451366425, 
        0.04176800325512886, 
        -0.077794149518013, 
        -0.056237976998090744, 
        -0.1473139077425003, 
        0.018347999081015587, 
        -0.14662690460681915, 
        -0.05744137614965439, 
        -0.10261785238981247, 
        -0.032260969281196594, 
        0.04053463041782379, 
        0.014179544523358345, 
        -0.0880543440580368, 
        0.020644307136535645, 
        -0.059322942048311234, 
        -0.03335132449865341, 
        -0.054662324488162994, 
        -0.017320405691862106, 
        0.05284859985113144, 
        -0.003216702025383711, 
        0.03381951525807381, 
        -0.11513832956552505, 
        -0.00480620888993144, 
        0.052872564643621445, 
        -0.06370218098163605, 
        -0.0003396020911168307, 
        0.021527519449591637, 
        -0.007823367603123188, 
        -0.04616704210639, 
        0.10093877464532852, 
        0.0013424457283690572, 
        -0.03815336897969246, 
        -0.09044460207223892, 
        -0.10033861547708511, 
        0.048308033496141434, 
        -0.12015683948993683, 
        0.06284593790769577, 
        0.028822703287005424, 
        0.02073538862168789, 
        -0.06550158560276031, 
        -0.03354441002011299, 
        -0.08202599734067917, 
        -0.10450802743434906, 
        0.023145845159888268, 
        -0.06438186764717102, 
        -0.19403076171875, 
        0.009999307803809643, 
        -0.03688473999500275, 
        -0.036991700530052185, 
        -0.03403649106621742, 
        0.06935985386371613, 
        -0.10573457926511765, 
        -0.022697949782013893, 
        0.018404459580779076, 
        -0.03492835536599159, 
        -0.03811154514551163, 
        -0.07690884172916412, 
        -0.031799521297216415, 
        -0.049703292548656464, 
        0.08008813858032227, 
        -0.011195740662515163, 
        -0.05021166801452637, 
        -0.01693897880613804, 
        0.015282826498150826, 
        -0.0003108374949079007, 
        -0.11937869340181351, 
        0.07132433354854584, 
        -0.11882033199071884, 
        0.039365049451589584, 
        0.005215901415795088, 
        -0.08300939202308655, 
        -0.10055031627416611, 
        0.07000760734081268, 
        -0.03563101217150688, 
        0.025089403614401817, 
        0.056056130677461624, 
        0.06797155737876892, 
        -0.0040532248094677925, 
        -0.06159723550081253, 
        -0.002336023608222604, 
        -0.05666374787688255, 
        -0.13900971412658691, 
        -0.23874503374099731, 
        -0.015621747821569443, 
        -0.05760800093412399, 
        0.07814107090234756, 
        -0.2664007842540741, 
        -0.07275669276714325, 
        -0.03079485148191452, 
        0.006374773103743792, 
        -0.033600736409425735, 
        0.013280852697789669, 
        -0.05734340846538544, 
        0.017843926325440407, 
        -0.1257334202528, 
        -0.26653236150741577, 
        -0.5749219655990601, 
        0.04674180969595909, 
        -0.011744828894734383, 
        0.015348843298852444, 
        0.061175502836704254, 
        -0.07701720297336578, 
        0.04210933670401573, 
        0.05793241783976555, 
        -0.04966729134321213, 
        -0.0032601619604974985, 
        0.04344538226723671, 
        -0.053874172270298004, 
        0.026111038401722908, 
        -0.05044740438461304, 
        0.05104374140501022, 
        -0.1327904909849167, 
        -0.01611417718231678, 
        -0.008653081022202969, 
        -0.06357135623693466, 
        0.04653362184762955, 
        -0.028534481301903725, 
        -0.015105137601494789, 
        -0.005930274724960327, 
        -0.03444382920861244, 
        0.03555179387331009, 
        -0.1440659463405609, 
        0.0071087670512497425, 
        -0.07682573795318604, 
        -0.031272321939468384, 
        -0.034282222390174866, 
        -0.03344746679067612, 
        0.016176775097846985, 
        -0.12335871160030365, 
        0.11118558049201965, 
        -0.005440527107566595, 
        0.029501590877771378, 
        -0.04215019568800926, 
        -0.05528474226593971, 
        -0.0816086083650589, 
        -0.00771624268963933, 
        -0.10774075239896774, 
        0.03475627675652504, 
        -0.09721856564283371, 
        0.0045917220413684845, 
        -0.008711599744856358, 
        -0.044584743678569794, 
        0.04444994404911995, 
        -0.03469552844762802, 
        -0.052434831857681274, 
        0.026753222569823265, 
        -0.02090550772845745, 
        -0.04239648953080177, 
        0.027320779860019684, 
        0.02316810004413128, 
        -0.007630618754774332, 
        -0.04455588012933731, 
        -0.151211217045784, 
        0.0272972509264946, 
        0.026762066408991814, 
        0.0630679801106453, 
        0.05588052421808243, 
        -0.019708216190338135, 
        -0.0600261390209198, 
        -0.013802307657897472, 
        0.044773977249860764, 
        -0.1742551028728485, 
        -0.08037503063678741, 
        0.06284850835800171, 
        -0.07999301701784134, 
        -0.007272733375430107, 
        -0.07291293889284134, 
        -0.0744427815079689, 
        0.00701664574444294, 
        0.10394425690174103, 
        -0.044120948761701584, 
        0.06720764189958572, 
        -0.08436838537454605, 
        0.07806075364351273, 
        0.06637268513441086, 
        -0.04693647474050522, 
        -0.010567854158580303, 
        0.04841260984539986, 
        -0.14255627989768982, 
        0.01774306409060955, 
        -0.033517852425575256, 
        -0.08182502537965775, 
        0.03720803186297417, 
        -0.007243454456329346, 
        -0.0007929503335617483, 
        0.09543789178133011, 
        -0.03110264614224434, 
        -0.024439992383122444, 
        0.03631362318992615, 
        0.07080145925283432, 
        0.0016243091085925698, 
        0.11424683779478073, 
        -0.05495762452483177, 
        -0.0018642969662323594, 
        0.01420286763459444, 
        0.007315690629184246, 
        0.017309775575995445, 
        0.047229234129190445, 
        -0.15487194061279297, 
        -0.05371393635869026, 
        -0.030909374356269836, 
        -0.32567551732063293, 
        -0.06263121962547302, 
        0.04475029557943344, 
        -0.02362903021275997, 
        0.04572857543826103, 
        -0.09263347834348679, 
        -0.1117515042424202, 
        -0.1176711916923523, 
        -0.05153942480683327, 
        0.08809337019920349, 
        0.03464789316058159, 
        -0.20609666407108307, 
        -0.0494893342256546, 
        0.009957894682884216, 
        -0.04650504142045975, 
        -0.04465329274535179, 
        0.01726924255490303, 
        -0.3530194163322449, 
        0.027754953131079674, 
        0.02176012471318245, 
        -0.4717622399330139, 
        0.02368328534066677, 
        -0.06321807950735092, 
        0.022937195375561714, 
        0.02027209848165512, 
        -0.021597890183329582, 
        -0.015075343661010265, 
        0.01298152469098568, 
        -0.052168771624565125, 
        0.017828289419412613, 
        -0.01876731775701046, 
        0.03647386655211449, 
        0.03267112746834755, 
        0.14130543172359467, 
        0.01986062526702881, 
        -0.009708692319691181, 
        0.04967457801103592, 
        0.07559607177972794, 
        0.01644555851817131, 
        0.020221974700689316, 
        -0.3804433345794678, 
        -5.677169322967529, 
        2.3282310962677, 
        -0.008517296984791756, 
        1.4753634929656982, 
        -1.5163006782531738, 
        -0.09010697156190872, 
        0.03259963542222977, 
        -0.015199003741145134, 
        -0.0883345752954483, 
        0.03486280515789986, 
        0.1561976820230484, 
        0.04200342670083046, 
        -0.03236515820026398, 
        -7.72121524810791, 
        -2.136493444442749, 
        0.013602649793028831, 
        0.2819118797779083, 
        -0.023618707433342934, 
        0.04247662052512169, 
        -0.1882045567035675, 
        -0.07223264127969742, 
        -0.06032474711537361, 
        0.02282233163714409, 
        -0.07701004296541214, 
        -0.05518420413136482, 
        0.01737058535218239, 
        -0.06077480688691139, 
        -0.019219910725951195, 
        0.05958396941423416, 
        0.04794913902878761
      ]
    }, 
    {
      "activation": "rectified", 
      "architecture": "dense", 
      "bias": [
        -1.2821968793869019, 
        -0.11459162831306458, 
        -0.5741962194442749, 
        -0.09073788672685623, 
        -0.5931824445724487, 
        -0.3642551302909851, 
        -0.05773649364709854, 
        -0.2847011685371399, 
        -0.004372396972030401, 
        -0.33012858033180237, 
        -0.30808430910110474, 
        0.01859308034181595, 
        -0.048478804528713226, 
        -0.07303479313850403, 
        -0.06096004694700241, 
        -0.09442906081676483, 
        -0.46260952949523926, 
        -0.10091990977525711, 
        -0.021899813786149025, 
        -0.16911858320236206, 
        -0.0491296760737896, 
        -0.07423441857099533, 
        -0.023046152666211128, 
        -0.07375948876142502, 
        -0.014521914534270763, 
        -0.08106116950511932, 
        -0.078244149684906, 
        -0.10675911605358124, 
        -0.12056759744882584, 
        -0.10858319699764252, 
        -0.1407955437898636, 
        -1.1810967922210693, 
        -0.18098504841327667, 
        -0.3144488036632538, 
        -0.35372304916381836, 
        -0.3584921658039093, 
        -0.44039949774742126, 
        -0.19962725043296814, 
        -0.04139222577214241, 
        -0.702808678150177
      ], 
      "weights": [
        0.07390691339969635, 
        -0.015863746404647827, 
        0.12455081194639206, 
        0.09740440547466278, 
        -0.0013886289671063423, 
        -0.08186440169811249, 
        0.0436275377869606, 
        0.0010363342007622123, 
        0.014109509997069836, 
        -0.051256146281957626, 
        0.09646552056074142, 
        0.008458415977656841, 
        -0.002630879171192646, 
        -0.2517448663711548, 
        0.029904372990131378, 
        0.1379622220993042, 
        -0.01676439307630062, 
        -0.042387984693050385, 
        -0.066082663834095, 
        0.013797573745250702, 
        -0.01122487522661686, 
        -2.7132413387298584, 
        -0.06166570633649826, 
        -0.029150983318686485, 
        0.030450932681560516, 
        -0.06672114133834839, 
        0.037319526076316833, 
        -0.03809788078069687, 
        -0.02857901342213154, 
        0.03785543143749237, 
        -0.023534728214144707, 
        -0.19199000298976898, 
        -0.017510967329144478, 
        -0.020213451236486435, 
        0.026319775730371475, 
        0.004481121432036161, 
        -0.04557341709733009, 
        0.013822166249155998, 
        -0.07840640097856522, 
        -0.17339114844799042, 
        0.001227766741067171, 
        0.033490292727947235, 
        0.048326268792152405, 
        0.02141241915524006, 
        0.04936480149626732, 
        -0.006754101719707251, 
        -0.011942298151552677, 
        0.07151995599269867, 
        0.09240280091762543, 
        0.0707320123910904, 
        0.06505690515041351, 
        0.019293490797281265, 
        -0.01528843678534031, 
        -0.05349848046898842, 
        0.021191902458667755, 
        -0.011136810295283794, 
        -0.07208200544118881, 
        -0.006094830110669136, 
        0.08108346909284592, 
        -0.04289788752794266, 
        0.013579288497567177, 
        -0.11070134490728378, 
        -0.0649430900812149, 
        -0.039499517530202866, 
        0.024380970746278763, 
        -0.010827683843672276, 
        -0.05263245478272438, 
        -0.11604072153568268, 
        0.024798769503831863, 
        -0.04600093886256218, 
        0.03484104201197624, 
        -0.065525121986866, 
        -0.13201375305652618, 
        -0.013810748234391212, 
        -0.0728181004524231, 
        -0.038992758840322495, 
        -0.07366013526916504, 
        0.06684092432260513, 
        0.03354789316654205, 
        0.015442615374922752, 
        0.017622364684939384, 
        0.03693987429141998, 
        -0.006104984786361456, 
        0.015236956998705864, 
        0.005471342243254185, 
        -0.08454675227403641, 
        0.06898856908082962, 
        -0.003134948667138815, 
        0.014173576608300209, 
        -0.025296760722994804, 
        0.0473780520260334, 
        -0.09138605743646622, 
        0.005756354425102472, 
        0.00011988578626187518, 
        0.07938827574253082, 
        0.13005267083644867, 
        -0.10845879465341568, 
        0.02415348030626774, 
        0.03608235716819763, 
        -0.12616445124149323, 
        -0.017726588994264603, 
        0.3424015939235687, 
        0.024679044261574745, 
        0.01335022784769535, 
        -0.04839435592293739, 
        0.05233843997120857, 
        -0.12963418662548065, 
        0.0025116847828030586, 
        0.045705050230026245, 
        -0.010084635578095913, 
        -0.04260604828596115, 
        -0.007413908839225769, 
        -2.2188479900360107, 
        -0.022516680881381035, 
        0.008289902471005917, 
        -0.032418280839920044, 
        -0.016547810286283493, 
        -0.00688143540173769, 
        0.07587341219186783, 
        -0.2442311942577362, 
        -0.06964506953954697, 
        -0.02508479915559292, 
        0.02322276309132576, 
        0.01950875110924244, 
        -0.04205873981118202, 
        -0.061533890664577484, 
        -0.042569730430841446, 
        -0.05068989843130112, 
        -0.03650933876633644, 
        -0.06438519805669785, 
        -0.0039035575464367867, 
        -0.0059128412976861, 
        0.08709947764873505, 
        -0.1295584738254547, 
        0.020036067813634872, 
        -0.1185440719127655, 
        -0.03005591221153736, 
        0.06951704621315002, 
        0.011976752430200577, 
        -0.04026360809803009, 
        0.00649708928540349, 
        -0.17334000766277313, 
        -0.14458464086055756, 
        -0.0957241952419281, 
        0.031456831842660904, 
        -0.05216020345687866, 
        -0.14799252152442932, 
        0.00701630674302578, 
        0.0327988862991333, 
        -0.05914480239152908, 
        0.01002929825335741, 
        -0.15250837802886963, 
        -0.17818526923656464, 
        0.0074964347295463085, 
        0.014486243017017841, 
        0.05019167438149452, 
        -0.025646796450018883, 
        -0.020205726847052574, 
        -0.03462664783000946, 
        -0.16384795308113098, 
        -0.10180340707302094, 
        -0.011657065711915493, 
        0.05880167707800865, 
        -0.09422492235898972, 
        0.0168540608137846, 
        0.014490042813122272, 
        0.029131155461072922, 
        -0.057384051382541656, 
        -0.020569244399666786, 
        0.01820855215191841, 
        -0.05870182439684868, 
        -0.041663940995931625, 
        -0.0003902729949913919, 
        -0.03002629615366459, 
        0.08038729429244995, 
        5.5743203120073304e-05, 
        -0.3257095217704773, 
        0.009350331500172615, 
        0.01927000656723976, 
        0.05646899342536926, 
        -0.012521803379058838, 
        -0.010994069278240204, 
        -0.09191268682479858, 
        -0.034166499972343445, 
        -0.08716409653425217, 
        0.0304179098457098, 
        -0.1179211214184761, 
        0.032125961035490036, 
        0.05759011209011078, 
        0.04386331886053085, 
        -1.8159100363845937e-05, 
        -0.041888292878866196, 
        -0.46500787138938904, 
        -0.04814228415489197, 
        -0.011503645218908787, 
        -0.04430195316672325, 
        0.05265214666724205, 
        0.011191337369382381, 
        -0.06370488554239273, 
        -0.14653629064559937, 
        -0.024376176297664642, 
        -0.036928750574588776, 
        -0.07057583332061768, 
        -0.06754392385482788, 
        -0.08255872130393982, 
        -0.0934876799583435, 
        0.11974690109491348, 
        -0.007219229359179735, 
        -0.00788151752203703, 
        -0.02498212456703186, 
        -0.011956403963267803, 
        -0.04268118739128113, 
        0.07969927787780762, 
        -0.4249125123023987, 
        -0.0026467808056622744, 
        -0.031027693301439285, 
        -0.04084299877285957, 
        0.05704117938876152, 
        0.074559286236763, 
        -0.05007629841566086, 
        0.11502652615308762, 
        -0.391546368598938, 
        -0.09170744568109512, 
        0.0727909654378891, 
        -0.01737825572490692, 
        -0.09008089452981949, 
        0.033631302416324615, 
        0.010246051475405693, 
        0.0121900150552392, 
        0.046241555362939835, 
        -0.020558161661028862, 
        -0.2832483649253845, 
        -0.017350172623991966, 
        -0.07788269221782684, 
        -0.10617775470018387, 
        0.02148851752281189, 
        -0.1591389775276184, 
        0.0320923775434494, 
        0.021032758057117462, 
        -0.1316893845796585, 
        -0.029655752703547478, 
        0.03281690552830696, 
        0.0063317641615867615, 
        -0.10610125213861465, 
        -0.048677943646907806, 
        0.008560064248740673, 
        0.06648530066013336, 
        -0.058010283857584, 
        0.07216291129589081, 
        -0.05438879877328873, 
        -0.11207998543977737, 
        0.03719118610024452, 
        -0.00783712137490511, 
        -0.0598408468067646, 
        -0.09293894469738007, 
        -0.018860166892409325, 
        -0.12810008227825165, 
        0.08719730377197266, 
        0.03223365545272827, 
        -0.08271259069442749, 
        -0.03845682740211487, 
        -0.0355779267847538, 
        0.03856528922915459, 
        -0.028747564181685448, 
        -0.05340297892689705, 
        -0.08400917053222656, 
        0.026099389418959618, 
        -1.7084394130506553e-05, 
        -0.007263659033924341, 
        0.05193446949124336, 
        -0.01377103477716446, 
        -0.047342825680971146, 
        -0.049130428582429886, 
        0.10268832743167877, 
        0.08716156333684921, 
        0.05027085542678833, 
        -0.04495953395962715, 
        0.015355163253843784, 
        0.015603932552039623, 
        -0.008848882280290127, 
        -0.005078725516796112, 
        0.03465520963072777, 
        -0.028578074648976326, 
        -0.003278728574514389, 
        -0.011519446969032288, 
        0.01737893372774124, 
        -0.06126083433628082, 
        -0.007844951003789902, 
        -0.009994952008128166, 
        -0.022042520344257355, 
        0.020319847390055656, 
        -0.03005456179380417, 
        0.09267379343509674, 
        -0.03940211609005928, 
        -0.0024035517126321793, 
        -0.07892526686191559, 
        -0.10947281122207642, 
        -0.04847785830497742, 
        -0.0008991560316644609, 
        0.04882608354091644, 
        -0.008399324491620064, 
        -0.06444273144006729, 
        0.05259441211819649, 
        0.013239942491054535, 
        0.0713965967297554, 
        -0.03238930180668831, 
        0.004767822567373514, 
        0.05171123892068863, 
        0.029329247772693634, 
        -0.028556210920214653, 
        0.09130503237247467, 
        -0.0492156445980072, 
        -0.1348346769809723, 
        0.007032433524727821, 
        -0.0509648434817791, 
        -0.08578601479530334, 
        0.022242138162255287, 
        0.09813208878040314, 
        -0.06502602994441986, 
        -0.254536509513855, 
        -0.01793082244694233, 
        0.030041838064789772, 
        -0.006079202517867088, 
        0.04782414436340332, 
        0.054822515696287155, 
        -0.005355087574571371, 
        -0.005936317145824432, 
        -0.08126959949731827, 
        0.043942611664533615, 
        -0.026729552075266838, 
        0.036659665405750275, 
        -0.0030282079242169857, 
        -0.021887818351387978, 
        -0.09958313405513763, 
        -0.018152397125959396, 
        0.024377835914492607, 
        -0.07044371217489243, 
        0.026856932789087296, 
        -0.04594435915350914, 
        0.059886083006858826, 
        -0.05867721512913704, 
        -0.11572757363319397, 
        0.04741444066166878, 
        0.06126531586050987, 
        -0.03303597867488861, 
        0.10808006674051285, 
        -0.021116014569997787, 
        0.025591732934117317, 
        0.12807677686214447, 
        0.009422080591320992, 
        0.05335225537419319, 
        0.00016517034964635968, 
        -0.08847473561763763, 
        0.016791492700576782, 
        -0.006124416366219521, 
        -0.0835900828242302, 
        -0.025945065543055534, 
        -0.030551007017493248, 
        -0.0010291399667039514, 
        0.00642332062125206, 
        0.08519313484430313, 
        -0.02478715032339096, 
        0.04837319999933243, 
        -0.055120620876550674, 
        -0.016734827309846878, 
        -0.02971494384109974, 
        0.010616043582558632, 
        0.07024846225976944, 
        -0.04249115288257599, 
        0.001368642901070416, 
        -0.0016143418615683913, 
        -0.053901948034763336, 
        -0.06377044320106506, 
        -0.0723826140165329, 
        0.021495716646313667, 
        -0.01602155901491642, 
        -0.4201205372810364, 
        -0.04900498688220978, 
        -0.03179902210831642, 
        -0.04902494326233864, 
        -0.03568907082080841, 
        -0.024101804941892624, 
        -0.08070655167102814, 
        0.08369721472263336, 
        -0.01679018698632717, 
        0.03774908930063248, 
        -0.1586374193429947, 
        -0.08064795285463333, 
        0.03213854134082794, 
        -0.05467602610588074, 
        0.046986762434244156, 
        0.00457913288846612, 
        -0.2431081086397171, 
        0.055153392255306244, 
        -0.06046679615974426, 
        -0.07872886210680008, 
        0.02824300527572632, 
        0.09618867188692093, 
        -0.09849578142166138, 
        -0.04715975373983383, 
        -0.026370497420430183, 
        0.06882915645837784, 
        0.04207257926464081, 
        0.0010688198963180184, 
        0.022095834836363792, 
        0.04286045581102371, 
        -0.0009974592830985785, 
        -0.019265970215201378, 
        -0.07807120680809021, 
        0.013340146280825138, 
        0.02383808046579361, 
        -0.013947795145213604, 
        0.0721629187464714, 
        0.023206710815429688, 
        0.05103980749845505, 
        0.04121772199869156, 
        -0.20164714753627777, 
        0.020802685990929604, 
        0.01872904598712921, 
        -0.11060848832130432, 
        -0.1626107543706894, 
        -0.08816447854042053, 
        -0.013986457139253616, 
        0.04632045701146126, 
        0.10395720601081848, 
        -0.010051975958049297, 
        -0.12358561903238297, 
        -0.10942129790782928, 
        -0.008454769849777222, 
        0.009733176790177822, 
        -0.008440358564257622, 
        -0.15264171361923218, 
        -0.2190527766942978, 
        0.04263461008667946, 
        -0.07661444693803787, 
        -0.14470787346363068, 
        -0.06961046159267426, 
        0.037374936044216156, 
        -0.04493419826030731, 
        -0.43151092529296875, 
        -0.01567356288433075, 
        -0.024103675037622452, 
        -0.04532596096396446, 
        0.1671057939529419, 
        -0.029749834910035133, 
        0.12846043705940247, 
        -0.07351456582546234, 
        -0.020138172432780266, 
        0.005901568103581667, 
        0.04800594225525856, 
        -0.012403902597725391, 
        0.02735024318099022, 
        -0.059072211384773254, 
        -0.10868507623672485, 
        0.10321220010519028, 
        0.08013640344142914, 
        0.00218368461355567, 
        -0.0001998364896280691, 
        0.04465203359723091, 
        0.02595798671245575, 
        -0.054727792739868164, 
        -2.341078996658325, 
        -0.05643080174922943, 
        -0.030578378587961197, 
        0.0341937281191349, 
        0.013381034135818481, 
        0.07473064959049225, 
        0.05666244402527809, 
        -0.005255540832877159, 
        -0.05008891969919205, 
        0.025792494416236877, 
        -0.3091842234134674, 
        0.3503306806087494, 
        0.008854126557707787, 
        0.0418611615896225, 
        0.005703025031834841, 
        -0.0046674953773617744, 
        -0.053651679307222366, 
        -0.10353165119886398, 
        0.11559485644102097, 
        0.018768148496747017, 
        0.05705297738313675, 
        0.01896042376756668, 
        0.05959925055503845, 
        0.0055026523768901825, 
        -0.03249753266572952, 
        -0.012448969297111034, 
        0.005032320506870747, 
        -0.05116979405283928, 
        0.013335928320884705, 
        -0.0208567064255476, 
        -0.059417709708213806, 
        -0.06163866072893143, 
        -0.05619407072663307, 
        -0.0019337667617946863, 
        0.004260867368429899, 
        -0.11345870792865753, 
        -0.029661882668733597, 
        0.02132488042116165, 
        -0.06147727370262146, 
        0.01178557425737381, 
        -0.050730153918266296, 
        -0.027677586302161217, 
        -0.008132739923894405, 
        -0.035441990941762924, 
        -0.037636395543813705, 
        -0.01052489597350359, 
        -0.07996091991662979, 
        -0.030887747183442116, 
        -0.023642126470804214, 
        0.019745323807001114, 
        0.0011599794961512089, 
        -0.03652992844581604, 
        0.07282298803329468, 
        0.11385946720838547, 
        0.041078832000494, 
        -0.03697090968489647, 
        -0.025769436731934547, 
        -0.07566408812999725, 
        -0.07845117151737213, 
        0.062353990972042084, 
        0.011835392564535141, 
        0.025591328740119934, 
        -0.011698510497808456, 
        -0.03015732206404209, 
        0.009091826155781746, 
        0.03709025681018829, 
        0.03702598810195923, 
        -0.04543289169669151, 
        0.024036655202507973, 
        0.0167032890021801, 
        0.09395159780979156, 
        -0.11083992570638657, 
        -0.019631147384643555, 
        -0.06763790547847748, 
        -0.0847621038556099, 
        -0.04380597174167633, 
        -0.01134142279624939, 
        -0.030693108215928078, 
        -0.02435298264026642, 
        -0.004705199506133795, 
        -0.007457562256604433, 
        0.05598143860697746, 
        -0.00742152938619256, 
        -0.04334287345409393, 
        -0.08242997527122498, 
        0.005045724101364613, 
        0.016630372032523155, 
        -0.0006661263760179281, 
        -0.04235640913248062, 
        -0.06506253778934479, 
        -0.025974314659833908, 
        -0.09066810458898544, 
        0.02361256629228592, 
        -0.13334499299526215, 
        -0.02613106183707714, 
        -0.045573871582746506, 
        -0.008387790061533451, 
        -0.03697995841503143, 
        0.002607629168778658, 
        -0.10569696873426437, 
        -0.005553185474127531, 
        0.08560536801815033, 
        -0.05160372704267502, 
        0.11279058456420898, 
        0.020691106095910072, 
        0.025534827262163162, 
        0.019502678886055946, 
        0.020504990592598915, 
        0.021499501541256905, 
        0.004838297609239817, 
        -0.12015041708946228, 
        0.02555946074426174, 
        -0.10534589737653732, 
        0.06043129414319992, 
        -0.08727962523698807, 
        -0.015739504247903824, 
        0.009200281463563442, 
        -0.004267469514161348, 
        -0.000599208171479404, 
        -0.04579777643084526, 
        -0.11062151193618774, 
        -0.01185252983123064, 
        -0.10611429810523987, 
        0.041996754705905914, 
        0.033874936401844025, 
        0.038833923637866974, 
        0.09946504235267639, 
        -0.02187618426978588, 
        0.030605316162109375, 
        -0.014193681068718433, 
        -0.02127736434340477, 
        -0.014584352262318134, 
        0.054698217660188675, 
        -0.05081366375088692, 
        -0.06079494580626488, 
        0.06865295767784119, 
        -0.01406732015311718, 
        0.05352141708135605, 
        -0.09744198620319366, 
        0.07664097100496292, 
        0.0565536804497242, 
        -0.05063465237617493, 
        0.0008292136481031775, 
        -0.040726687759160995, 
        0.11192155629396439, 
        0.013475335203111172, 
        0.09030754119157791, 
        0.01684715412557125, 
        -0.003461807034909725, 
        0.03349144756793976, 
        -0.06132342666387558, 
        -0.04278738796710968, 
        -0.15145516395568848, 
        0.026701075956225395, 
        -0.0905650183558464, 
        -0.03317597508430481, 
        -0.0019739957060664892, 
        0.018537137657403946, 
        -0.11486462503671646, 
        0.05720105022192001, 
        -0.08190904557704926, 
        -0.13943490386009216, 
        -0.029523693025112152, 
        -0.02070773020386696, 
        0.010351650416851044, 
        -0.0641619861125946, 
        -0.04293562471866608, 
        0.01915029250085354, 
        -0.06221988797187805, 
        -0.03793471306562424, 
        -0.22870126366615295, 
        -0.045349232852458954, 
        -0.055236488580703735, 
        0.0397917814552784, 
        -0.053052548319101334, 
        -0.1313457041978836, 
        0.038186632096767426, 
        -0.0705007016658783, 
        -0.11147929728031158, 
        -0.004746459890156984, 
        -0.06485836207866669, 
        -0.0063095251098275185, 
        0.08595295995473862, 
        -0.04930818825960159, 
        -0.006211579777300358, 
        -0.00669079227373004, 
        -0.049081623554229736, 
        0.03528808057308197, 
        0.052811481058597565, 
        0.005895968060940504, 
        -0.09124371409416199, 
        0.02239673212170601, 
        -0.10579529404640198, 
        0.06165223941206932, 
        -0.0016600523376837373, 
        -0.0458182692527771, 
        0.06221717223525047, 
        -0.06038229912519455, 
        -0.023053787648677826, 
        0.004641060717403889, 
        -0.20386163890361786, 
        -0.09894309192895889, 
        -0.0747600793838501, 
        0.03261182829737663, 
        -0.027476338669657707, 
        0.09297831356525421, 
        0.04339582473039627, 
        -0.05339299887418747, 
        0.025003131479024887, 
        -0.05542660877108574, 
        -1.1785422563552856, 
        -0.0271623432636261, 
        -0.046591904014348984, 
        0.019632354378700256, 
        0.10213550925254822, 
        -0.0105203902348876, 
        -0.11298726499080658, 
        0.004245044197887182, 
        -0.138639897108078, 
        -0.02128140814602375, 
        0.02140907570719719, 
        0.03838931396603584, 
        0.049385830760002136, 
        0.02015817165374756, 
        -0.0712670236825943, 
        0.02814602293074131, 
        -0.010335064493119717, 
        0.07121232897043228, 
        0.016016876325011253, 
        0.04035179316997528, 
        -0.0021570816170424223, 
        0.010999022051692009, 
        -0.1815735548734665, 
        0.05108465626835823, 
        -0.09233596175909042, 
        -0.005577565170824528, 
        -0.07392522692680359, 
        0.04165571928024292, 
        0.0252399779856205, 
        -0.015207610093057156, 
        -0.16884641349315643, 
        -0.0022122731897979975, 
        -0.013300223276019096, 
        0.015993786975741386, 
        0.03989497572183609, 
        0.036415040493011475, 
        0.022674065083265305, 
        -0.040623728185892105, 
        0.1330721229314804, 
        0.10512953996658325, 
        -0.1217670738697052, 
        -0.06072472780942917, 
        0.012014379724860191, 
        -0.12772338092327118, 
        -0.004290608689188957, 
        -0.010795536451041698, 
        0.07541228085756302, 
        -0.06875383853912354, 
        -0.15540854632854462, 
        0.014333325438201427, 
        -0.0464596264064312, 
        0.03537337854504585, 
        -0.0013087538536638021, 
        -0.010144087485969067, 
        -0.015445760451257229, 
        -0.03922627866268158, 
        0.060539670288562775, 
        0.11597996950149536, 
        0.02761634811758995, 
        -0.050964515656232834, 
        -0.005884790327399969, 
        0.07902953773736954, 
        -0.02762995846569538, 
        -0.013090422376990318, 
        -0.004088807851076126, 
        -0.008560850284993649, 
        0.034099455922842026, 
        -0.0009533383999951184, 
        -0.015319832600653172, 
        0.025721406564116478, 
        -0.05963597446680069, 
        0.019043952226638794, 
        0.014441963285207748, 
